/*
 * Copyright (c) 2024 EdgeImpulse Inc.
 *
 * Generated by Edge Impulse and licensed under the applicable Edge Impulse
 * Terms of Service. Community and Professional Terms of Service
 * (https://docs.edgeimpulse.com/page/terms-of-service) or Enterprise Terms of
 * Service (https://docs.edgeimpulse.com/page/enterprise-terms-of-service),
 * according to your product plan subscription (the “License”).
 *
 * This software, documentation and other associated files (collectively referred
 * to as the “Software”) is a single SDK variation generated by the Edge Impulse
 * platform and requires an active paid Edge Impulse subscription to use this
 * Software for any purpose.
 *
 * You may NOT use this Software unless you have an active Edge Impulse subscription
 * that meets the eligibility requirements for the applicable License, subject to
 * your full and continued compliance with the terms and conditions of the License,
 * including without limitation any usage restrictions under the applicable License.
 *
 * If you do not have an active Edge Impulse product plan subscription, or if use
 * of this Software exceeds the usage limitations of your Edge Impulse product plan
 * subscription, you are not permitted to use this Software and must immediately
 * delete and erase all copies of this Software within your control or possession.
 * Edge Impulse reserves all rights and remedies available to enforce its rights.
 *
 * Unless required by applicable law or agreed to in writing, the Software is
 * distributed on an "AS IS" BASIS, WITHOUT WARRANTIES OR CONDITIONS OF ANY KIND,
 * either express or implied. See the License for the specific language governing
 * permissions, disclaimers and limitations under the License.
 */
// Generated on: 29.08.2024 00:18:51

#include <stdio.h>
#include <stdlib.h>
#include "edge-impulse-sdk/tensorflow/lite/c/builtin_op_data.h"
#include "edge-impulse-sdk/tensorflow/lite/c/common.h"
#include "edge-impulse-sdk/tensorflow/lite/micro/micro_mutable_op_resolver.h"
#include "edge-impulse-sdk/porting/ei_classifier_porting.h"

#if EI_CLASSIFIER_PRINT_STATE
#if defined(__cplusplus) && EI_C_LINKAGE == 1
extern "C" {
    extern void ei_printf(const char *format, ...);
}
#else
extern void ei_printf(const char *format, ...);
#endif
#endif

#if defined (__GNUC__)  /* GNU compiler */
#define ALIGN(X) __attribute__((aligned(X)))
#define DEFINE_SECTION(x) __attribute__((section(x)))
#elif defined (_MSC_VER)
#define ALIGN(X) __declspec(align(X))
#elif defined (__TASKING__) /* TASKING Compiler */
#define ALIGN(X) __align(X)
#define DEFINE_SECTION(x) __attribute__(section(x)))
#elif defined (__ARMCC_VERSION) /* Arm Compiler */
#define ALIGN(X) __ALIGNED(x)
#define DEFINE_SECTION(x) __attribute__((section(x)))
#elif defined (__ICCARM__) /* IAR Compiler */
#define ALIGN(X) __ALIGNED(x)
#define DEFINE_SECTION(x) __attribute__((section(x)))
#elif defined (__clang__) /* LLVM/Clang Compiler */
#define ALIGN(X) __ALIGNED(x)
#define DEFINE_SECTION(x) __attribute__((section(x)))
#endif

#ifndef EI_MAX_SCRATCH_BUFFER_COUNT
#ifndef CONFIG_IDF_TARGET_ESP32S3
#define EI_MAX_SCRATCH_BUFFER_COUNT 4
#else
#define EI_MAX_SCRATCH_BUFFER_COUNT 4
#endif // CONFIG_IDF_TARGET_ESP32S3
#endif // EI_MAX_SCRATCH_BUFFER_COUNT

#ifndef EI_MAX_OVERFLOW_BUFFER_COUNT
#define EI_MAX_OVERFLOW_BUFFER_COUNT 10
#endif // EI_MAX_OVERFLOW_BUFFER_COUNT

using namespace tflite;
using namespace tflite::ops;
using namespace tflite::ops::micro;

namespace {

#if defined(EI_CLASSIFIER_ALLOCATION_STATIC_HIMAX) || defined(EI_CLASSIFIER_ALLOCATION_STATIC_HIMAX_GNU)
constexpr int kTensorArenaSize = 738592;
#else
constexpr int kTensorArenaSize = 737568;
#endif

#if defined(EI_CLASSIFIER_ALLOCATION_STATIC)
#if defined (EI_TENSOR_ARENA_LOCATION)
#define STRINGIZE(x) #x
#define STRINGIZE_VALUE_OF(x) STRINGIZE(x)
uint8_t tensor_arena[kTensorArenaSize] ALIGN(16) DEFINE_SECTION(STRINGIZE_VALUE_OF(EI_TENSOR_ARENA_LOCATION));
#else
uint8_t tensor_arena[kTensorArenaSize] ALIGN(16);
#endif
#elif defined(EI_CLASSIFIER_ALLOCATION_STATIC_HIMAX)
#pragma Bss(".tensor_arena")
uint8_t tensor_arena[kTensorArenaSize] ALIGN(16);
#pragma Bss()
#elif defined(EI_CLASSIFIER_ALLOCATION_STATIC_HIMAX_GNU)
uint8_t tensor_arena[kTensorArenaSize] ALIGN(16) __attribute__((section(".tensor_arena")));
#else
#define EI_CLASSIFIER_ALLOCATION_HEAP 1
uint8_t* tensor_arena = NULL;
#endif

static uint8_t* tensor_boundary;
static uint8_t* current_location;

template <int SZ, class T> struct TfArray {
  int sz; T elem[SZ];
};

enum used_operators_e {
  OP_CONV_2D, OP_MAX_POOL_2D, OP_RESHAPE, OP_FULLY_CONNECTED, OP_SOFTMAX,  OP_LAST
};

struct TensorInfo_t { // subset of TfLiteTensor used for initialization from constant memory
  TfLiteAllocationType allocation_type;
  TfLiteType type;
  void* data;
  TfLiteIntArray* dims;
  size_t bytes;
};

typedef struct {
  TfLiteTensor tensor;
  int16_t index;
} TfLiteTensorWithIndex;

typedef struct {
  TfLiteEvalTensor tensor;
  int16_t index;
} TfLiteEvalTensorWithIndex;

TfLiteContext ctx{};
static const int MAX_TFL_TENSOR_COUNT = 4;
static TfLiteTensorWithIndex tflTensors[MAX_TFL_TENSOR_COUNT];
static const int MAX_TFL_EVAL_COUNT = 4;
static TfLiteEvalTensorWithIndex tflEvalTensors[MAX_TFL_EVAL_COUNT];
TfLiteRegistration registrations[OP_LAST];

namespace g0 {
const TfArray<4, int> tensor_dimension0 = { 4, { 1,96,96,3 } };
const ALIGN(16) float tensor_data1[16] = { -0.00049988582031801343, -0.00049981853226199746, 0.00049999105976894498, 0.00049999507609754801, 0.00049991131527349353, 0, 0.00049975357251241803, 0.00049997598398476839, 0.0004999578814022243, 0.00049996195593848825, 0, -0.00049994571600109339, 0.00049999007023870945, -0.00049998902250081301, 0.00049978372408077121, -0.00049998349277302623, };
const TfArray<1, int> tensor_dimension1 = { 1, { 16 } };
const ALIGN(16) float tensor_data2[16*3*3*3] = { 
  /* [0][0][][] */ -0.00027496027178131044,0.0029940500389784575,-0.17702944576740265, 0.11165034770965576,-0.11643717437982559,0.052814178168773651, 0.15106338262557983,-0.1598895788192749,-0.021273542195558548, 
  /* [0][1][][] */ -0.044148936867713928,0.061718400567770004,0.068104863166809082, 0.089532077312469482,0.012882203795015812,0.034143697470426559, -0.16271892189979553,0.043609589338302612,0.099474743008613586, 
  /* [0][2][][] */ 0.030424820259213448,0.10013122856616974,0.046409018337726593, -0.14627577364444733,-0.062356781214475632,0.18367637693881989, -0.042867910116910934,0.15922990441322327,-0.15558311343193054, 
  /* [1][0][][] */ -0.18184936046600342,-0.034581176936626434,-0.18698844313621521, -0.15828274190425873,-0.0075398925691843033,-0.053754966706037521, 0.13566544651985168,0.18047438561916351,-0.16884566843509674, 
  /* [1][1][][] */ 0.18510669469833374,0.081454232335090637,0.06454736739397049, 0.044293303042650223,-0.15820463001728058,-0.066341280937194824, 0.025165880098938942,-0.065199375152587891,0.050280895084142685, 
  /* [1][2][][] */ -0.11914873868227005,-0.0036262383218854666,0.14305801689624786, -0.13033439218997955,-0.030766475945711136,0.13049428164958954, 0.015163223259150982,-0.031423628330230713,0.098896786570549011, 
  /* [2][0][][] */ 0.12011954188346863,-0.15610487759113312,-0.1568399965763092, 0.084482729434967041,-0.10077555477619171,0.080417759716510773, 0.090311110019683838,-0.11047320067882538,0.10864216089248657, 
  /* [2][1][][] */ 0.1322668194770813,0.17720788717269897,-0.0047873901203274727, 0.061609618365764618,-0.14038126170635223,-0.013419592753052711, -0.13403631746768951,-0.15854744613170624,0.17969217896461487, 
  /* [2][2][][] */ 0.088658072054386139,-0.028849983587861061,0.060601267963647842, 0.012278212234377861,0.024450268596410751,0.066226474940776825, 0.14403338730335236,0.18443885445594788,-0.092073135077953339, 
  /* [3][0][][] */ -0.15279415249824524,-0.0055432934314012527,0.1573333740234375, 0.16559047996997833,0.15791359543800354,-0.01479463092982769, -0.031299848109483719,0.05103607103228569,0.18490725755691528, 
  /* [3][1][][] */ 0.075221575796604156,0.092127531766891479,0.13435746729373932, 0.061978265643119812,0.1596294641494751,0.17823158204555511, 0.090067662298679352,0.12863726913928986,0.087216861546039581, 
  /* [3][2][][] */ -0.068240746855735779,-0.17831012606620789,-0.14065955579280853, -0.0046592997387051582,0.082515105605125427,0.16782502830028534, 0.17241695523262024,-0.12054039537906647,-0.06986575573682785, 
  /* [4][0][][] */ 0.1506420224905014,-0.025868156924843788,-0.11943558603525162, 0.001939176581799984,-0.031681746244430542,-0.14727048575878143, 0.089681200683116913,-0.044396501034498215,-0.11093567311763763, 
  /* [4][1][][] */ -0.10970722883939743,-0.087492503225803375,-0.14763177931308746, -0.16367177665233612,-0.043122388422489166,0.11335207521915436, -0.11636380851268768,-0.11993253231048584,0.090556077659130096, 
  /* [4][2][][] */ -0.065036803483963013,-0.079819925129413605,0.10643280297517776, 0.13302561640739441,-0.093108072876930237,0.15377172827720642, 0.037363853305578232,-0.021358035504817963,-0.048438254743814468, 
  /* [5][0][][] */ -0.05531967431306839,-0.012443847022950649,0.091681420803070068, -0.10153216868638992,-0.012064049020409584,-0.062594249844551086, 0.030702456831932068,-0.057497836649417877,-0.15675076842308044, 
  /* [5][1][][] */ -0.0011350346030667424,-0.071922168135643005,0.16993376612663269, -0.024069558829069138,0.035077422857284546,-0.12758387625217438, -0.18279190361499786,0.033919744193553925,0.13180007040500641, 
  /* [5][2][][] */ -0.03572285920381546,0.14537414908409119,-0.16732732951641083, 0.09086029976606369,0.048395656049251556,-0.15065778791904449, -0.11856052279472351,-0.14420907199382782,-0.018245300278067589, 
  /* [6][0][][] */ 0.090155020356178284,-0.024412507191300392,-0.047631062567234039, -0.10101958364248276,-0.17839093506336212,-0.11458175629377365, -0.09721016138792038,0.015748666599392891,-0.08351530134677887, 
  /* [6][1][][] */ 0.030027598142623901,-0.065196201205253601,-0.015992460772395134, -0.06494460254907608,0.17932814359664917,0.056399539113044739, 0.002334540244191885,0.08990933746099472,-0.13122773170471191, 
  /* [6][2][][] */ -0.18267874419689178,-0.10777802765369415,-0.074756287038326263, 0.10917704552412033,-0.10951180011034012,0.10476979613304138, 0.040746837854385376,-0.087301090359687805,-0.1719115674495697, 
  /* [7][0][][] */ 0.13572841882705688,0.096318706870079041,0.13940834999084473, -0.1387798935174942,-0.056806862354278564,0.1598278284072876, 0.10701607912778854,-0.061661481857299805,-0.023250844329595566, 
  /* [7][1][][] */ -0.073539197444915771,-0.060168161988258362,-0.15589173138141632, 0.12580122053623199,-0.011907363310456276,0.17114298045635223, -0.065731026232242584,0.1144903376698494,-0.0016392123652622104, 
  /* [7][2][][] */ 0.087953530251979828,0.084648758172988892,-0.061560798436403275, -0.089172996580600739,-0.15536125004291534,0.065531149506568909, 0.0054860967211425304,0.1527724415063858,0.07578384131193161, 
  /* [8][0][][] */ 0.10200870037078857,0.037995714694261551,-0.040398862212896347, -0.073362149298191071,-0.059127122163772583,-0.15866707265377045, -0.13849072158336639,0.053393237292766571,-0.062026474624872208, 
  /* [8][1][][] */ -0.18012721836566925,-0.014617807231843472,0.10919538140296936, -0.0052887345664203167,-0.16189363598823547,-0.17163592576980591, 0.10800143331289291,-0.081819526851177216,-0.039628122001886368, 
  /* [8][2][][] */ -0.064022459089756012,0.13729478418827057,0.076805062592029572, 0.12186073511838913,-0.08886399120092392,0.08126552402973175, -0.050078488886356354,0.1705041229724884,0.17035283148288727, 
  /* [9][0][][] */ -0.1547548919916153,0.13933123648166656,0.15120822191238403, 0.16607868671417236,-0.0096583850681781769,-0.10743812471628189, -0.14629118144512177,0.05837656557559967,-0.072002440690994263, 
  /* [9][1][][] */ 0.1734360009431839,-0.10124385356903076,0.040863852947950363, -0.11787893623113632,-0.065214179456233978,0.049597151577472687, -0.18599294126033783,0.086661264300346375,0.11351724714040756, 
  /* [9][2][][] */ -0.1325666606426239,-0.13168632984161377,-0.019684063270688057, 0.053385645151138306,0.18722145259380341,0.17178638279438019, -0.068634308874607086,-0.038157444447278976,-0.15254281461238861, 
  /* [10][0][][] */ 0.17854325473308563,-0.052250582724809647,-0.15838150680065155, 0.098896361887454987,0.035653851926326752,-0.14665418863296509, -0.18131716549396515,0.11337945610284805,-0.12112415581941605, 
  /* [10][1][][] */ 0.062873363494873047,-0.011361646465957165,0.015464638359844685, -0.1395229697227478,-0.17197366058826447,-0.18470185995101929, 0.049400739371776581,0.1078815832734108,-0.10778260976076126, 
  /* [10][2][][] */ -0.13890260457992554,-0.072124086320400238,-0.0032218077685683966, -0.094228431582450867,0.0024192319251596928,-0.10180008411407471, -0.14732395112514496,-0.15798661112785339,0.035374365746974945, 
  /* [11][0][][] */ -0.024944277480244637,-0.1819513738155365,-0.097512573003768921, 0.010287251323461533,-0.17433862388134003,-0.14178101718425751, 0.053241055458784103,-0.017583729699254036,0.055951863527297974, 
  /* [11][1][][] */ 0.030765475705265999,0.136757493019104,0.1553310751914978, 0.15076370537281036,-0.14995785057544708,0.071901068091392517, 0.11877872049808502,0.072437800467014313,0.07975412905216217, 
  /* [11][2][][] */ -0.0024966851342469454,0.1444326788187027,-0.076576165854930878, -0.099017724394798279,0.06187126412987709,-0.098566658794879913, 0.11014951765537262,-0.041330114006996155,-0.11887472122907639, 
  /* [12][0][][] */ -0.084863476455211639,0.17827484011650085,0.030216127634048462, 0.15322995185852051,-0.012953091412782669,0.11313053220510483, 0.11532077938318253,0.15522868931293488,-0.1179918646812439, 
  /* [12][1][][] */ -0.1339121013879776,-0.14979082345962524,-0.029072199016809464, -0.053869672119617462,0.066452391445636749,-0.058184385299682617, 0.046117518097162247,-0.067103534936904907,-0.12766492366790771, 
  /* [12][2][][] */ 0.16299106180667877,0.068277806043624878,0.024185340851545334, -0.085673384368419647,-0.015605253167450428,-0.08835100382566452, -0.059707988053560257,0.087400585412979126,0.12617133557796478, 
  /* [13][0][][] */ 0.043425470590591431,0.082863911986351013,0.0322982557117939, 0.022641876712441444,0.13066881895065308,0.16537964344024658, 0.10981474816799164,0.017448976635932922,0.054838743060827255, 
  /* [13][1][][] */ 0.15461656451225281,-0.02610408328473568,-0.18758678436279297, -0.1732560396194458,0.076470561325550079,0.18042066693305969, 0.16348287463188171,-0.048761479556560516,0.031881812959909439, 
  /* [13][2][][] */ -0.099564716219902039,-0.062767267227172852,-0.18722741305828094, 0.10817814618349075,-0.057581949979066849,-0.11086936295032501, -0.10153172165155411,-0.14294780790805817,0.11691996455192566, 
  /* [14][0][][] */ 0.16912743449211121,0.043835859745740891,-0.065633580088615417, -0.13066551089286804,-0.1811659187078476,0.012870610691606998, -0.073840104043483734,-0.060312900692224503,0.15578664839267731, 
  /* [14][1][][] */ -0.017060041427612305,0.087645038962364197,0.062139179557561874, -0.0067353332415223122,0.030499726533889771,-0.070737689733505249, -0.15921097993850708,-0.14370688796043396,0.073532775044441223, 
  /* [14][2][][] */ 0.12810014188289642,-0.097601041197776794,-0.1653812974691391, -0.0021447900217026472,0.18128997087478638,0.078164853155612946, 0.070826731622219086,0.15514096617698669,0.086070477962493896, 
  /* [15][0][][] */ -0.00066792778670787811,0.062261499464511871,0.051484443247318268, 0.10912726819515228,-0.091695994138717651,-0.17438654601573944, -0.16627600789070129,0.049626238644123077,0.17836114764213562, 
  /* [15][1][][] */ -0.025127345696091652,0.066973030567169189,-0.043669231235980988, -0.040903009474277496,0.14736099541187286,0.1467624306678772, -0.10428167879581451,0.16857908666133881,-0.12209793925285339, 
  /* [15][2][][] */ -0.041802044957876205,-0.076784558594226837,0.030129238963127136, -0.065799124538898468,-0.12620145082473755,0.11599078774452209, 0.049692504107952118,-0.17039820551872253,-0.040417257696390152, 
};
const TfArray<4, int> tensor_dimension2 = { 4, { 16,3,3,3 } };
const ALIGN(8) int32_t tensor_data3[2] = { -1, 36864, };
const TfArray<1, int> tensor_dimension3 = { 1, { 2 } };
const ALIGN(8) float tensor_data4[2] = { -0.00049999542534351349, 0.00049999542534351349, };
const TfArray<1, int> tensor_dimension4 = { 1, { 2 } };
const ALIGN(16) float tensor_data5[2*36864] = { 
  0.0044270213693380356, -0.0024686818942427635, -0.0049448423087596893, 0.010040655732154846, 0.0068153068423271179, -0.0084345266222953796, -0.010549966245889664, 0.0065225139260292053, 0.0051595345139503479, 0.0044404175132513046, -0.0073850336484611034, -0.00032595917582511902, -0.010536293499171734, -0.0064363512210547924, 0.0059799160808324814, 0.0014006830751895905, 0.011497108265757561, -0.0046704290434718132, -0.0085697267204523087, 0.0044654980301856995, 0.010875396430492401, -0.0052784336730837822, -0.009248761460185051, 0.0087709221988916397, 0.00954393669962883, 0.0017074048519134521, -0.006449828390032053, 0.0076181665062904358, 0.0085780322551727295, 0.0036469753831624985, 0.012392491102218628, -0.0038874894380569458, -0.0039313947781920433, 0.0012323306873440742, -0.011891544796526432, -0.011444611474871635, 0.0022484418004751205, 0.0029314588755369186, -0.0036355722695589066, -0.002843041904270649, -0.00062896125018596649, -0.0044719399884343147, -0.010063427500426769, -0.0028880462050437927, -0.0032367045059800148, -0.0055579082109034061, -0.0012469179928302765, 0.0066919978708028793, 0.00027473550289869308, 0.0013426309451460838, 0.0025459993630647659, 0.0035196896642446518, 0.0098570361733436584, 0.0068160612136125565, 0.010359084233641624, 0.0020512426272034645, 0.00553099624812603, 0.0062362104654312134, 0.0044489949941635132, 0.0023330049589276314, 0.0069196894764900208, -0.0023383060470223427, -0.0021968167275190353, -0.007836267352104187, -0.00053205527365207672, 0.012419531121850014, -0.0094188209623098373, 0.0053921341896057129, -0.0044807270169258118, -0.011471222154796124, 0.0059271827340126038, -0.0014402968809008598, 0.0027006100863218307, 0.0009947996586561203, -0.0037469435483217239, -0.0090105459094047546, -0.0076070339418947697, -0.010375757701694965, -0.0019273152574896812, 0.010428711771965027, 5.4808333516120911e-06, 0.0091979727149009705, -0.0053072739392518997, 0.0065354034304618835, -0.0095035871490836143, -0.0028617149218916893, -0.01063256710767746, 0.0109730064868927, -0.0019553229212760925, 0.0077400375157594681, -0.0076990365050733089, -0.010931966826319695, 0.007930481806397438, -0.0017613992094993591, -0.0051764696836471558, 0.0026836227625608444, -0.0088191870599985123, 0.0062941964715719223, -0.0037951469421386719, -0.0035660378634929657, 0.0099117159843444824, -0.0055357138626277447, -0.010950107127428055, -0.0012231329455971718, 0.0024382537230849266, -0.010503590106964111, 0.0074579101055860519, -0.00088760722428560257, -0.0034250896424055099, -0.010693559423089027, 0.0071106385439634323, -0.00065189506858587265, 0.0094570163637399673, 1.4776363968849182e-05, 0.0033551119267940521, 0.002770676277577877, -0.012706493958830833, -0.0087652038782835007, -0.010590313002467155, 0.0068293195217847824, -0.011950578540563583, 0.012219317257404327, -0.0026191258803009987, 0.0072878338396549225, 0.011883946135640144, 0.0034820530563592911, -0.0042073056101799011, -0.0085829328745603561, 0.0037241224199533463, -0.0094641558825969696, 0.0064467526972293854, -0.0042724106460809708, -0.0026120478287339211, -0.0065947640687227249, 0.0067644491791725159, 0.010129466652870178, 0.0062481798231601715, 0.0056049861013889313, 0.008349960669875145, -0.011906588450074196, -0.0061955591663718224, -0.00083118490874767303, 0.0066415276378393173, -0.012289723381400108, 0.0027990788221359253, 0.005987849086523056, 0.008382728323340416, -0.0078944507986307144, 0.0088890977203845978, -0.0051264539361000061, 0.0079600829631090164, 0.0015913005918264389, 0.0041420925408601761, -0.0072026071138679981, -0.005745988804847002, 0.0086808670312166214, 0.0068531781435012817, 0.0062796603888273239, 0.0029296241700649261, 0.01229550875723362, -0.010575232096016407, -0.0038121221587061882, -0.010382087901234627, -0.0021183313801884651, 0.0018712859600782394, -0.00855215173214674, 0.0055015087127685547, 0.0021407268941402435, -0.0059111239388585091, 0.0010805903002619743, 0.011582484468817711, 0.002399037592113018, 0.0063535794615745544, 0.0057089757174253464, -0.011870103888213634, -0.010817356407642365, 0.0076455436646938324, 0.0095890499651432037, -0.004011702723801136, -0.0094482880085706711, -0.0034125372767448425, -0.0036354623734951019, -0.0066503584384918213, 0.00038140546530485153, 0.0020275367423892021, -8.8187865912914276e-05, 0.0025398153811693192, -0.0093623436987400055, -0.0022206055000424385, 0.01170220784842968, 0.0065249372273683548, -0.010308851487934589, 0.00033204257488250732, 0.011019982397556305, -0.0097809629514813423, -0.0076296273618936539, 0.003576209768652916, 0.00028159469366073608, -0.01170600950717926, 0.011475300416350365, 0.0060135778039693832, 0.0091429650783538818, -0.0059928670525550842, -0.0032569533213973045, -0.01262279786169529, 0.0033861454576253891, -0.0082223135977983475, -0.0054000611416995525, 0.011869097128510475, -0.0059746536426246166, -0.0026821838691830635, 0.011516159400343895, 0.012415351346135139, -0.0017926394939422607, -0.0034732930362224579, -0.0026921266689896584, 0.0093850530683994293, 0.00092546921223402023, 0.0040348954498767853, -0.0046951388940215111, -0.00024292338639497757, 0.010033572092652321, -0.0036534043028950691, -0.0050344299525022507, 0.007432715967297554, -0.010420104488730431, 0.0064508598297834396, -0.010942569933831692, -0.0012689754366874695, 0.0028506070375442505, 0.0033405032008886337, -0.011771401390433311, -0.0027284342795610428, 0.0037124846130609512, 0.007851380854845047, 0.0044774264097213745, -0.012688396498560905, 0.0059524103999137878, 0.0067111514508724213, 0.011529890820384026, -0.00042378343641757965, 0.011357100680470467, 0.011457066982984543, -0.0082035139203071594, 0.0078893229365348816, 0.008676355704665184, 0.0018165372312068939, 0.0011763405054807663, -0.012293809093534946, 0.0091848447918891907, -0.0069773215800523758, -0.0047235358506441116, -0.0055228597484529018, 0.0087280906736850739, 0.003703773021697998, -0.0085044316947460175, -0.0059638470411300659, -0.00196121446788311, -0.002584405243396759, 0.012454366311430931, -0.0013134162873029709, 0.010287689045071602, 0.0083333179354667664, 0.010166361927986145, -0.00097215734422206879, 0.011977862566709518, 0.012536659836769104, -0.0020724218338727951, 0.0073969848453998566, -0.011402126401662827, 0.00012788455933332443, 0.0096242167055606842, 0.0034058764576911926, -0.0017064251005649567, -0.00080844666808843613, -0.010970032773911953, -1.5877187252044678e-05, 0.0082497503608465195, -0.0040292982012033463, 0.0047320034354925156, -0.00012728199362754822, -0.0062629976309835911, -0.0016181515529751778, -0.011926869861781597, 0.00014711916446685791, -0.0048442017287015915, -0.0029601892456412315, 0.0046540163457393646, -0.010372004471719265, 0.0093591511249542236, -0.011495715938508511, 0.005039682611823082, 0.0025319047272205353, -0.003336968831717968, 0.0034643784165382385, 0.0074176602065563202, -0.00052625220268964767, -0.0016602445393800735, 0.012654956430196762, 0.0085646640509366989, 0.0082139316946268082, -0.010856209322810173, -0.0084411026909947395, 0.00043193809688091278, 0.011100195348262787, -0.0080549437552690506, -0.011076159775257111, 0.0032886303961277008, -0.0062785707414150238, 0.010562339797616005, 0.00029888004064559937, 0.012029213830828667, -0.010439530946314335, -0.010024339891970158, 0.0038926731795072556, 0.0026919441297650337, 0.0043712109327316284, 0.010783905163407326, -0.0039661237969994545, 0.0023992843925952911, -0.0028863819316029549, -0.0023475494235754013, -0.0039926161989569664, 0.0038565602153539658, -0.010760125704109669, 0.0039983373135328293, 0.00032414030283689499, -0.0084839314222335815, 0.0096071865409612656, -0.011528942734003067, -0.0041582072153687477, 0.012032771483063698, -0.009065249003469944, 0.011395841836929321, 0.0034925434738397598, 0.0084382202476263046, 0.011828424409031868, 0.012517692521214485, 0.0017127702012658119, 0.0094091817736625671, -0.0072712195105850697, -0.011183882132172585, 0.0074370596557855606, -0.0055915908887982368, 0.0058777481317520142, 0.0020319074392318726, 0.0043007880449295044, -0.0075704893097281456, 0.0014865566045045853, -0.00019076000899076462, -0.001386621966958046, -0.0088507095351815224, 0.01215040311217308, 0.00893450528383255, 0.012007296085357666, 0.0012431675568223, 0.0032984130084514618, 0.0040073022246360779, 0.0023031905293464661, -0.00016030203551054001, 0.010529033839702606, 0.0019906656816601753, -0.001305912621319294, 0.0019692657515406609, 0.0073170047253370285, 0.0029773078858852386, -0.0064038485288619995, 0.0031885933130979538, 0.003664020448923111, -0.0026890095323324203, 0.0089688487350940704, 0.010452756658196449, 0.01212664507329464, -0.0086276624351739883, 0.0016273828223347664, -0.010484485886991024, -0.0088851768523454666, -0.0053294594399631023, 0.0015579704195261002, 0.012400785461068153, 0.0047923121601343155, -0.0042980760335922241, 0.0094499047845602036, 0.0038347356021404266, -0.011140770278871059, 0.0047158282250165939, -0.006284036673605442, 0.0090694613754749298, -2.0515173673629761e-05, 0.0085011962801218033, -0.0029223160818219185, -0.00031990371644496918, 0.0068270750343799591, 0.0062565859407186508, -0.0051241996698081493, -0.0057035554200410843, -0.010756636969745159, -0.0011468920856714249, -0.012145837768912315, 0.0071275960654020309, -0.011727979406714439, -0.00275468360632658, -0.0055221053771674633, 0.0071825813502073288, 0.010067729279398918, -0.0044896723702549934, -0.0064559024758636951, 0.0025177886709570885, -0.0016672611236572266, 0.0035992376506328583, 0.0026226229965686798, -0.0098093105480074883, -0.0074911974370479584, 0.0047724656760692596, -0.010769463144242764, -0.0074788089841604233, -0.0044824546203017235, -0.011082653887569904, -0.0022489503026008606, -0.0098307263106107712, 0.0067348051816225052, 0.0068241078406572342, -0.00076012779027223587, -0.0040060244500637054, 0.0071730706840753555, 0.0075776465237140656, -0.0066216848790645599, 0.0051352288573980331, 0.007521236315369606, -0.0099525125697255135, -0.00023779552429914474, 0.012208281084895134, 0.0099441930651664734, -0.011680688709020615, 0.0020365519449114799, -0.0070397625677287579, 0.0066942814737558365, 0.008897954598069191, -0.005136439111083746, -0.0049876044504344463, 0.0025424957275390625, -0.0054269093088805676, -0.012384354136884212, -0.0092659797519445419, -0.003375910222530365, 0.00079543143510818481, -0.00025474932044744492, -0.0099259410053491592, 0.0093350633978843689, -0.0087507721036672592, -0.0045420005917549133, 0.012128543108701706, 0.01099274680018425, -0.012271754443645477, -0.0056044477969408035, -0.0065779923461377621, 0.005662260577082634, 0.011225864291191101, -3.0199997127056122e-05, -0.0013150768354535103, -0.0070191984996199608, 0.0066045299172401428, -0.0068763615563511848, -0.0082011688500642776, -0.00050545390695333481, 0.012245684862136841, -0.0078506730496883392, -0.0067417370155453682, 0.011503651738166809, 0.010537425056099892, 0.0016842735931277275, -0.0029272735118865967, -0.0050720334984362125, 0.012380402535200119, 0.0034072753041982651, -0.0094337761402130127, -0.0053826025687158108, -0.0021013012155890465, 0.0055096875876188278, -0.005999488290399313, -0.011326040141284466, 0.010494319722056389, -0.0019513806328177452, 0.0078536197543144226, 0.0073392912745475769, 0.0037757903337478638, 0.00083394069224596024, 0.012076787650585175, 0.0020206049084663391, 0.0035778693854808807, -0.0043114619329571724, 0.0042967647314071655, -0.0086407046765089035, 0.010996166616678238, -0.00030968431383371353, -0.0097851548343896866, -0.0047178054228425026, 0.0079466924071311951, -0.0057883402332663536, -0.0049118287861347198, -0.006535419262945652, -0.011442451737821102, 0.0023074131458997726, -0.0006968742236495018, -0.0095503944903612137, 0.0073737893253564835, 0.01117524690926075, 0.01238834485411644, 0.0069353748112916946, -0.0049569574184715748, -0.010898256674408913, -0.00072811730206012726, 0.010548161342740059, 0.0019442904740571976, -0.0032501546666026115, -0.010000146925449371, 0.0095716100186109543, -0.0090632475912570953, 0.01224074512720108, 0.00046150572597980499, 0.0027301684021949768, -0.0082989716902375221, 0.01061873696744442, -0.0029105385765433311, 0.0064635705202817917, -8.5147097706794739e-05, -0.0022894972935318947, 0.0089099761098623276, 0.005123509094119072, -0.00089000072330236435, -0.012148660607635975, 0.0098368823528289795, -0.010537909343838692, -0.0090181222185492516, 0.0078714918345212936, 0.0017064977437257767, 0.00046946294605731964, 0.00027904286980628967, -0.0044108312577009201, 0.010947633534669876, 0.0026699807494878769, -0.0020989170297980309, -0.00082026608288288116, -0.0060054073110222816, 0.00014904141426086426, -0.012010796926915646, 0.012102007865905762, -0.0069616725668311119, 0.00072704069316387177, -0.0041588461026549339, 0.0073142088949680328, -0.0017738062888383865, -0.0042786002159118652, -0.011568723246455193, -0.0034092525020241737, -0.0070712645538151264, -0.0085298269987106323, -0.0051676463335752487, -0.010085808113217354, 0.0058458596467971802, 0.012739801779389381, -0.0094066178426146507, -0.010214705020189285, -0.0011938018724322319, 0.0085577275604009628, 0.0083110742270946503, -0.001992235891520977, -0.0013813478872179985, 0.0017954502254724503, -0.0087111946195363998, 0.011896001175045967, -0.0058008474297821522, -0.0087654236704111099, -0.012095717713236809, -0.0031440332531929016, 0.0052833426743745804, 0.0049175415188074112, 0.0099966470152139664, -0.011090726591646671, 0.0055364258587360382, -0.0023117382079362869, -0.00091944634914398193, 0.0075617693364620209, -0.0044712433591485023, -0.0053522321395576, -0.007683679461479187, -0.0054774000309407711, -0.010685943998396397, -0.0086606647819280624, 0.00010219775140285492, 0.0016534347087144852, 0.010462686419487, -0.012579111382365227, -0.0025464771315455437, 0.0059997644275426865, -0.0074936947785317898, 0.00037868879735469818, -0.0043510422110557556, -0.0052071656100451946, -0.0094081507995724678, -0.0058056805282831192, -0.0072181378491222858, -0.010122358798980713, -0.010218339040875435, -0.006668413057923317, -0.0020827809348702431, -0.0025845970958471298, -0.0044124769046902657, -0.0040475968271493912, -0.011651534587144852, 0.0097144246101379395, -0.0035085724666714668, -0.0020793285220861435, 0.0086059495806694031, -0.0048620868474245071, 0.012157360091805458, -0.0091055594384670258, 0.0099323336035013199, 0.0095731671899557114, -0.010181508958339691, 0.0022208336740732193, 0.011194739490747452, 0.0040063671767711639, -0.0024235444143414497, 0.0049084015190601349, 0.0062068793922662735, 0.0045625157654285431, -0.012496902607381344, 0.00070776604115962982, 0.011639757081866264, 0.0088832788169384003, -0.0081208068877458572, 0.0092394333332777023, 0.003294430673122406, 0.0032104495912790298, -0.0015244064852595329, -0.0096740173175930977, -0.010394439101219177, 0.0046920981258153915, -0.012601995840668678, 0.0074130110442638397, -0.010875849053263664, -0.011654703877866268, -0.0087115410715341568, -0.0088941436260938644, 0.0044230185449123383, -0.0082067865878343582, 0.0075397603213787079, -0.010528291575610638, 0.012195169925689697, 0.01273706741631031, -0.005814078263938427, 0.0034104082733392715, 0.01069481298327446, -0.0070654549635946751, 0.00062634889036417007, -0.0086601441726088524, -0.0093658538535237312, 0.010404132306575775, -0.011772632598876953, -0.011835466139018536, -0.012035722844302654, -0.0029863044619560242, -0.010869459249079227, -0.00011465977877378464, -0.0038564717397093773, -0.0074776504188776016, 0.0101168192923069, 0.0070674754679203033, -0.0049797995015978813, 0.0088583379983901978, -0.001878613606095314, 0.0056971125304698944, -5.339551717042923e-05, 0.012729762122035027, -0.010424675419926643, -0.011922367848455906, -0.003874477930366993, 0.003025909885764122, -0.0027864109724760056, 0.0042878743261098862, -0.0090623050928115845, -0.007280305027961731, -0.00057627167552709579, 0.010112136602401733, 0.0042603444308042526, 0.0021904567256569862, 0.0061761289834976196, 0.0041320919990539551, -0.003299374133348465, 0.0086297858506441116, -0.01037535909563303, 0.011651236563920975, 0.0030415523797273636, 0.009072914719581604, -0.012104672379791737, 0.010641001164913177, 0.00028759893029928207, 0.0040445514023303986, -0.0083318967372179031, -0.0033422000706195831, -0.012011460028588772, -0.01081499271094799, -0.0053217397071421146, 0.0047373268753290176, -0.0018148310482501984, 0.010057894513010979, -0.011652616783976555, 0.0017123259603977203, -0.010982695035636425, 0.0042130760848522186, -0.0066653960384428501, -0.0021957308053970337, -0.0029787765815854073, -0.006933318916708231, -0.0096914032474160194, 0.0075421016663312912, -0.00037420541048049927, 0.0079119373112916946, 0.0059742424637079239, -0.007281837984919548, 0.010633518919348717, 0.012135706841945648, 0.012555757537484169, 0.00022304710000753403, 0.010869167745113373, -0.0010613864287734032, 0.01178731769323349, -0.0048799654468894005, 0.0059232600033283234, 0.0015423363074660301, -0.00024516507983207703, 0.0075979419052600861, -0.0022733528167009354, 0.00018951017409563065, -0.0017319228500127792, 0.0076032876968383789, 0.0092712026089429855, -0.0051596648991107941, 0.0048458892852067947, 0.0025947531685233116, -0.01092770230025053, -0.01175462082028389, 0.0070677455514669418, -0.0064068688079714775, -0.011462291702628136, 4.1670165956020355e-05, 0.0093930121511220932, -0.0085400128737092018, 0.0020848857238888741, -0.011909818276762962, -0.0076135005801916122, -0.00044673588126897812, 0.01057766005396843, -0.011777952313423157, -0.0024840384721755981, -0.0067898980341851711, 0.010751849040389061, 0.0012078359723091125, 0.0030589904636144638, -0.0092173842713236809, -0.0091048199683427811, -0.00082291476428508759, -0.002960478886961937, 0.0050479620695114136, 0.0046005882322788239, 0.011087046936154366, 0.0081237293779850006, -0.011293500661849976, -0.0093651516363024712, -0.0062618665397167206, -0.011562165804207325, 0.0050575044006109238, 0.0076774805784225464, -0.01141764409840107, 0.0044139083474874496, 0.0012380117550492287, 0.012084471061825752, -0.0075001399964094162, -0.0093173589557409286, -0.0013542138040065765, 0.0012310165911912918, -0.0087548084557056427, 0.0086302179843187332, -0.010705960914492607, -0.0089720757678151131, -0.0061274212785065174, 0.010875046253204346, -0.0029847566038370132, 0.010796274989843369, 0.0090939104557037354, 0.0051160454750061035, -0.0064508048817515373, 0.00016065407544374466, -0.0082200262695550919, 0.0081892367452383041, -0.0086769182235002518, -0.0086643379181623459, -0.0012406129390001297, -0.010567953810095787, 0.0068766996264457703, 0.0042561348527669907, -0.012291190214455128, 0.011102847754955292, -0.0045979106798768044, 0.011040898039937019, -0.0086011001840233803, -0.012637264095246792, 0.0079488586634397507, 0.0007412424311041832, 0.0099608730524778366, 0.0084140263497829437, -0.0036493381485342979, 0.002757892943918705, -0.011293783783912659, 0.0024184221401810646, 0.0071730390191078186, 0.0060988366603851318, -0.011277821846306324, -0.0033335797488689423, 0.0044019278138875961, 0.0063668619841337204, -0.0025581475347280502, 0.0049252007156610489, 0.011741243302822113, 0.0058115292340517044, 0.001034826971590519, 0.001169043593108654, 0.006679074838757515, 0.012601125985383987, 0.0018916865810751915, -0.0098716206848621368, 0.010256554931402206, 0.0032937135547399521, -0.00045722909271717072, 0.0086626019328832626, -0.0071731219068169594, 0.008520912379026413, -0.0076604508794844151, 0.0060457997024059296, 0.0093333553522825241, -0.009935302659869194, 0.0073939692229032516, -0.00028760451823472977, -0.011462969705462456, 0.00050534121692180634, -0.0055086342617869377, -0.012639605440199375, -0.0030608121305704117, 0.0078558195382356644, 0.0071237385272979736, 0.010559394955635071, 0.0078547485172748566, -0.010625652968883514, -0.012346681207418442, -0.006659072358161211, -0.011532172560691833, 0.0090755391865968704, 0.010630233213305473, 0.010520629584789276, -0.0071645383723080158, -0.0051342584192752838, 0.00082859676331281662, -0.012337707914412022, -0.0076512256637215614, -0.001661546528339386, 0.0036294590681791306, 0.0068757813423871994, -0.0016366327181458473, 0.0048807859420776367, 0.0057630743831396103, 0.011416029185056686, -0.011143939569592476, 0.0023743854835629463, 0.00020010676234960556, -0.002965128980576992, 0.0032078102231025696, 0.011232327669858932, -0.0019896775484085083, 0.0053535215556621552, 0.0050617139786481857, -0.012246521189808846, 0.010009333491325378, -0.0085831098258495331, -0.0035035265609622002, -0.0008395705372095108, -0.0048094820231199265, -0.0073588117957115173, 0.011667283251881599, 0.0024163508787751198, -0.011786402203142643, 0.0074113532900810242, 0.010649895295500755, 0.012308983132243156, -0.0046276580542325974, 0.0082834586501121521, 0.011379724368453026, -0.012459317222237587, -0.0039696767926216125, -0.0020381882786750793, -0.0033465642482042313, 0.0094031020998954773, -0.0033746873959898949, 0.0066243764013051987, 0.0093422364443540573, 0.0019165240228176117, -0.010639224201440811, 0.0048917606472969055, -0.011686533689498901, -0.0060729370452463627, -0.0049760374240577221, -0.0020651156082749367, 0.006921352818608284, 0.0059196837246417999, -0.00064316578209400177, 0.0097785815596580505, -4.4303946197032928e-05, 0.011209962889552116, 0.0029450263828039169, -0.0080057792365550995, 0.0085114371031522751, 0.00059045758098363876, 0.005711432546377182, -0.011968636885285378, -0.0024916548281908035, 0.004426661878824234, 0.00050375331193208694, 0.012074390426278114, 0.0013340963050723076, -0.0071831438690423965, -0.0004262169823050499, 0.0065716076642274857, -0.010387364774942398, -0.0071827974170446396, -0.012068431824445724, -0.010527713224291801, -0.011478874832391739, 0.0089112427085638046, -0.00018746592104434967, -0.0089921075850725174, 0.007131652906537056, 0.0037990454584360123, 0.0077192578464746475, 0.0048994552344083786, -0.0056558176875114441, -0.0086988424882292747, -0.012007548473775387, 0.01123698428273201, -0.0012826751917600632, -0.0095672020688652992, 0.0067414417862892151, -0.0058582364581525326, 0.0027571925893425941, -0.0044915219768881798, 0.011284209787845612, -0.0070494958199560642, 0.0035507716238498688, -0.0049355775117874146, -0.0020601246505975723, -0.010908117517828941, 0.0029662903398275375, -0.0059516378678381443, 0.012493016198277473, 0.008561745285987854, -0.010080712847411633, 0.0095466654747724533, -0.0095280138775706291, -0.0041740424931049347, -0.00400568637996912, -0.0015381146222352982, 0.00044247694313526154, 0.0090330783277750015, 0.00016776565462350845, -0.0074363574385643005, 0.0024808477610349655, -0.005533149465918541, 0.0073361527174711227, 0.0061379335820674896, 0.005330132320523262, -0.0040563168004155159, -0.012366603128612041, -0.010400890372693539, -0.0023218421265482903, -0.0081302542239427567, 0.0024244692176580429, 0.0084225554019212723, 0.0091498065739870071, -0.0035207513719797134, 0.005944250151515007, 0.0075867157429456711, 0.0021210387349128723, -0.0042784335091710091, 0.0090529359877109528, -0.01103657390922308, -0.0093581005930900574, 0.0072591193020343781, -0.011854959651827812, 0.0083761103451251984, 0.011532513424754143, 0.0025592939928174019, 0.00053420290350914001, 0.0025031343102455139, 0.0090796481817960739, -0.0068163690157234669, 0.0085425917059183121, -0.0039612455293536186, 0.00013962481170892715, 0.0095777474343776703, -0.01198973972350359, 0.0072061996906995773, -0.007685772143304348, -0.011988875456154346, -0.00061207450926303864, 0.00085516553372144699, 0.0098871421068906784, -0.0084571987390518188, -0.0094801178202033043, 0.010073596611618996, 0.0011279545724391937, -0.0091475704684853554, -0.01079813577234745, -0.0099089993163943291, -0.0072521152906119823, 0.0096491128206253052, -0.012680326588451862, -0.0099178235977888107, -0.0074110785499215126, -0.0070281499065458775, 0.0078721493482589722, 0.0030183214694261551, 0.003912065178155899, -0.0018261028453707695, 0.0057519935071468353, -0.0022708801552653313, 0.0097663868218660355, 0.001922941766679287, -0.0086999861523509026, 0.012396940961480141, -0.0057937544770538807, -0.00093206577003002167, -0.011534089222550392, 0.012572787702083588, 0.0023201573640108109, -0.012431709095835686, -0.0068985195830464363, -0.0075239981524646282, -0.011457373388111591, 0.011949392035603523, 0.0018708547577261925, 0.012323953211307526, 0.00788116455078125, -0.010513640008866787, -0.012149922549724579, 0.011441830545663834, -0.011109502054750919, -0.004214906133711338, -0.00092045310884714127, -0.0052716233767569065, -0.009340967983007431, 0.006686946377158165, -0.002647053450345993, -0.0074152550660073757, -0.01250283420085907, -0.0058364737778902054, -0.011340606026351452, -0.0074335229583084583, 0.0044115800410509109, 0.0067358966916799545, -0.0053973784670233727, -0.0081736389547586441, -0.0099321696907281876, -0.0022920677438378334, -0.0099870255216956139, 0.0061091072857379913, -0.011999542824923992, -0.012556795030832291, -0.0025190534070134163, 0.011671906337141991, -0.0097374040633440018, -0.000354754738509655, -0.007684880867600441, 0.0071598123759031296, -0.0030862335115671158, 0.0060863234102725983, 0.0044215191155672073, 0.01168464869260788, -0.0034466153010725975, 0.0024596545845270157, -0.002194632776081562, -0.0055938721634447575, 0.0056958533823490143, 0.0018571401014924049, 0.0024678874760866165, 0.0028629498556256294, 0.010623602196574211, 0.010030757635831833, -0.0024226102977991104, 0.0091790668666362762, -0.0027124080806970596, -0.0028409101068973541, -0.0039232410490512848, -0.0079408437013626099, -0.0057546542957425117, 0.0062384456396102905, 0.006396271288394928, -0.0065161655656993389, -0.0083937719464302063, 0.0088118016719818115, 0.0038357619196176529, -0.0032564904540777206, -0.0072229676879942417, -0.0089284861460328102, 0.0051955077797174454, -0.00085451733320951462, -0.0035078302025794983, -0.0075614587403833866, -0.0036265142261981964, -0.0013516126200556755, -0.012642866000533104, 0.0102804284542799, 0.01169549860060215, -0.0013499977067112923, -0.0030412944033741951, 0.0022824322804808617, 0.011783290654420853, -0.0047250837087631226, 0.010322649031877518, 0.011271631345152855, -0.0055103315971791744, 0.0047420989722013474, 0.0092232879251241684, -0.0047689527273178101, 0.0041964706033468246, 0.0024744942784309387, -0.0023740120232105255, 0.0054656285792589188, -0.009464639239013195, 0.0056664478033781052, 0.0098323933780193329, -0.0020646499469876289, -0.0017206352204084396, 0.0029148273169994354, 0.0088880453258752823, -0.0016808118671178818, -0.0125782685354352, -0.0047690412029623985, 0.0085172373801469803, -0.0063886223360896111, 0.0098133310675621033, -0.0052188728004693985, -0.0017858324572443962, -0.0070542711764574051, -0.0041382117196917534, -0.012226586230099201, 0.0013980977237224579, -0.00062826182693243027, 0.0027442844584584236, -0.0020806035026907921, -0.00259367935359478, 0.0086171384900808334, -0.0053509911522269249, 0.0011298591271042824, -0.007557340431958437, -0.0025789458304643631, 0.0012291613966226578, -0.0063446708954870701, -0.010694709606468678, 0.00050781108438968658, -0.0065951957367360592, 0.0071166027337312698, 0.011766562238335609, 0.011714696884155273, -0.011015225201845169, -0.0056268828921020031, 0.0092741549015045166, -0.012159163132309914, 0.0022585401311516762, -0.0047532673925161362, 0.00040958542376756668, 0.011297719553112984, -0.0056589078158140182, 0.0059406217187643051, 0.0042908061295747757, 0.0090738534927368164, 0.0017290087416768074, 0.012126073241233826, -0.0050868066027760506, -0.0079804854467511177, -0.010623444803059101, -0.010237934067845345, 0.010326337069272995, -0.0077505065128207207, 0.012485366314649582, 0.0060218255966901779, 0.0091925766319036484, 0.0098347477614879608, -0.0090386234223842621, -0.0058156084269285202, 0.0089043118059635162, 0.0016581704840064049, -0.00072356685996055603, -0.0052032754756510258, 0.0075939223170280457, 0.003542361781001091, -0.0023206071928143501, 0.0090305600315332413, 0.0023503052070736885, -0.012001455761492252, 0.0105466078966856, -0.011287204921245575, 0.01026993989944458, 0.0030518509447574615, 0.0024699680507183075, -0.012434436939656734, 0.0090415216982364655, -0.01265327725559473, 0.0011942405253648758, 0.011982414871454239, 0.00071921758353710175, 0.0019053062424063683, -0.0037759691476821899, -0.0089080929756164551, 0.0045159850269556046, -0.0084631238132715225, 0.00092715397477149963, -0.0021198373287916183, -0.0014787400141358376, -0.0067164432257413864, 0.0038491114974021912, 0.0019286572933197021, 0.0069387424737215042, -0.0097051812335848808, -0.0079690311104059219, 0.0054608900099992752, 0.009284384548664093, -0.00020381808280944824, -0.00097198132425546646, -0.0051963529549539089, 0.00034552346915006638, -0.0066566667519509792, -0.0067473365925252438, 0.0039869248867034912, 0.0018632346764206886, -0.0099493619054555893, -0.0064562065526843071, -0.0097470944747328758, -0.0042886864393949509, -0.0059798820875585079, -0.0090916566550731659, -0.0055350139737129211, 0.0018315175548195839, -0.0056671719066798687, 0.0019535254687070847, -0.0010825740173459053, 0.0070989560335874557, 0.012282496318221092, 0.010727191343903542, 0.010480480268597603, 0.010912835597991943, 0.0016370611265301704, -0.005229597445577383, -0.0081839710474014282, -0.011123360134661198, -0.0072139310650527477, -0.0067578544840216637, -0.0044867191463708878, -0.0062263677828013897, -0.0067486357875168324, -0.0036766547709703445, -0.0090586487203836441, -0.0089879222214221954, -0.0046626580879092216, -0.00026764627546072006, -0.0090309614315629005, -0.00088608358055353165, -0.0022855950519442558, -0.0031247586011886597, -0.012418258935213089, -0.0056921495124697685, -0.011791168712079525, -0.004089689813554287, 0.0061749108135700226, 0.010820921510457993, -0.0090788416564464569, -0.0025161067023873329, 0.0043036546558141708, -0.004923669621348381, -0.0042871804907917976, 0.01010955311357975, -0.0074824863113462925, -0.00085101369768381119, 0.010614071041345596, -0.010509125888347626, 0.012678751721978188, 0.010919444262981415, -0.0089732464402914047, 0.00036839023232460022, -0.0016117002815008163, 0.012439945712685585, 0.0038802698254585266, 0.0072524715214967728, -0.0056784623302519321, 0.0083722770214080811, -0.0026668664067983627, -0.0072577847167849541, 0.0056212283670902252, 0.0086109824478626251, 0.0019132271409034729, -0.008469773456454277, -0.00850706547498703, -0.0034720702096819878, -0.012297434732317924, -0.0056123561225831509, 0.011928243562579155, 0.0080963149666786194, 0.012352269142866135, 0.0085821356624364853, -0.0049531734548509121, -0.012187644839286804, -0.0041360771283507347, -0.0028180889785289764, 0.0077389124780893326, -0.0037460643798112869, -0.005996139720082283, 0.0033720619976520538, -0.010985249653458595, -0.0037452550604939461, -0.0083424914628267288, -0.0046002352610230446, -0.01086555328220129, -0.011583605781197548, 0.0038473792374134064, 0.012199552729725838, -0.0025469204410910606, -0.0076504773460328579, -0.0018895873799920082, 0.0095605067908763885, -0.011627843603491783, -0.0011033238843083382, -0.0096125006675720215, -0.010182847268879414, 0.00015539862215518951, -0.0061014341190457344, 0.011200509965419769, -0.0062234355136752129, -0.0088153025135397911, 0.01251133531332016, 0.0081406570971012115, 0.0032568275928497314, 0.0080430265516042709, 0.0073103290051221848, -0.00083462242037057877, -0.008352300152182579, 0.0090503543615341187, -0.0045019239187240601, -0.0072914981283247471, -0.0038303164765238762, 0.012333227321505547, 0.0066573694348335266, 0.0072617027908563614, 0.010989261791110039, 0.0023875981569290161, -0.010866398923099041, -0.010377980768680573, 0.010693326592445374, -0.0084328968077898026, 0.0087907891720533371, 0.012711798772215843, -0.0099841998890042305, 0.0069058556109666824, 0.0097679197788238525, 0.0042824577540159225, 0.0042633134871721268, 0.0068258102983236313, 0.00091555342078208923, -0.0023651057854294777, 0.0054333843290805817, 0.0078819151967763901, 0.0036426801234483719, 0.0075119566172361374, 0.011825712397694588, -0.0088244155049324036, -0.0052502257749438286, 0.01172054186463356, 0.010865811258554459, -0.0098654218018054962, 0.0036501754075288773, 0.011161571368575096, -0.0045894831418991089, 0.0043233148753643036, -0.010099847801029682, -0.0020265113562345505, -0.00180086400359869, 0.0037178415805101395, -0.0029683960601687431, 0.0026121446862816811, -0.0089031895622611046, 0.001871718093752861, 0.010017305612564087, 0.012076474726200104, 0.0067674238234758377, -0.012471216730773449, 0.0046479608863592148, -0.0079202987253665924, 0.0055282488465309143, -0.00084474217146635056, -0.0083481576293706894, -0.0040938416495919228, 0.010197123512625694, 0.00068789254873991013, -0.0025207782164216042, 0.0098106004297733307, -0.0027963658794760704, 0.00022527016699314117, 0.012572163715958595, -0.0041177636012434959, 0.010942809283733368, -0.00044250767678022385, -6.6911801695823669e-05, -0.0091091785579919815, 0.0054506696760654449, 0.0085320249199867249, 0.0065250266343355179, 0.0078664887696504593, -0.0035734772682189941, 0.011856641620397568, -0.010530337691307068, -0.0067546307109296322, 0.012516684830188751, -0.0090568242594599724, 0.0093401037156581879, 0.000126643106341362, -0.0097047099843621254, -0.0055369273759424686, -0.0061178100295364857, -0.0046361470595002174, -0.00039321556687355042, -0.00074171368032693863, -0.009810715913772583, 0.01018294133245945, 0.00028577353805303574, -0.006170955952256918, -0.01214950904250145, -0.0016519650816917419, 0.0036169271916151047, 0.012567447498440742, -0.010796630755066872, 0.006997130811214447, 0.0088066402822732925, -0.012721765786409378, 0.004276251420378685, -0.0030898163095116615, -0.0083904452621936798, -0.0049094622954726219, -0.00043821893632411957, -0.012572194449603558, -0.01155749149620533, 0.008060060441493988, 0.0031905267387628555, -0.0084830010309815407, -0.0016846871003508568, 0.012261111289262772, 0.010863656178116798, 0.0020450316369533539, 0.010694725438952446, 0.0082216784358024597, -0.00046129245311021805, -0.012256120331585407, 0.011284856125712395, -0.0065760216675698757, -0.0040603503584861755, -0.0029472382739186287, -0.0098748598247766495, 0.0035455320030450821, -5.5481679737567902e-05, 0.010073943063616753, -0.0054647559300065041, -0.0051911789923906326, -0.0022144308313727379, 0.011345596984028816, 0.0067003257572650909, 0.0035891961306333542, 0.0073208548128604889, -0.0047587696462869644, -0.0086742844432592392, -0.0054678679443895817, -0.0048527214676141739, -0.0083054378628730774, -0.0016475152224302292, -0.0071346941404044628, 0.00017923861742019653, -0.0010616844519972801, 0.00023225694894790649, 0.011844685301184654, -0.010420207865536213, -0.010426926426589489, 0.0016767177730798721, 0.0099739246070384979, 0.012208841741085052, -0.0070113814435899258, 0.0014686323702335358, -0.0051166019402444363, -0.0074511365965008736, 0.0090311001986265182, -0.0065807085484266281, 0.01205621100962162, 0.0015596281737089157, 0.0080333109945058823, 0.0084640514105558395, -0.0042458120733499527, 0.0060045402497053146, -0.00025759078562259674, -0.0085039660334587097, 0.012359421700239182, -0.01087691355496645, -0.0023355418816208839, -0.0079503245651721954, -0.0051761232316493988, -0.011628627777099609, -0.0059298872947692871, 0.0077002476900815964, 0.00087676104158163071, -0.0060602412559092045, 0.0059434287250041962, -0.0025341883301734924, 0.011872580274939537, 0.00097009819000959396, 0.0080644618719816208, -0.0019044335931539536, 0.011986341327428818, 0.012757230550050735, -0.0099719846621155739, 0.007345857098698616, 0.010307388380169868, -0.0081541668623685837, 0.0088771693408489227, 0.0044410806149244308, -0.0098369922488927841, -0.0068265339359641075, -0.011132676154375076, -0.0088613918051123619, 0.011931322515010834, -0.0018195305019617081, -0.011633524671196938, 0.011607129126787186, 0.010358009487390518, -0.012369164265692234, 0.0013371771201491356, 0.0044104568660259247, -0.00062194745987653732, -0.0086356010288000107, 0.0038856808096170425, 0.0076544135808944702, -0.011512916535139084, -0.0090652462095022202, -0.0099705373868346214, -0.00763303367421031, -0.010776093229651451, -0.012380254454910755, -0.0054098004475235939, -0.0075577325187623501, 0.012024125084280968, -0.0012298757210373878, 0.0018890677019953728, -0.00048733502626419067, -0.0052765966393053532, -0.009133046492934227, -0.012653767131268978, -0.0061918608844280243, 0.01002257876098156, -0.0038237897679209709, 0.0046803504228591919, -0.012510200962424278, -0.0041654007509350777, 0.0063181351870298386, -0.0013357177376747131, 0.0045632924884557724, -0.012296120636165142, -0.0035600308328866959, -0.0055286693386733532, -0.0072118658572435379, 0.011821061372756958, 0.012399857863783836, 0.002673211507499218, -0.0089085819199681282, 0.011448532342910767, -0.0099935801699757576, -0.0057480055838823318, 0.00030880793929100037, 0.0025095213204622269, -0.0045970166102051735, 0.0074040256440639496, -0.0036087939515709877, -0.0082963192835450172, 0.0074795912951231003, 0.011196007952094078, 0.01181795634329319, -0.0027498658746480942, 0.011181365698575974, -0.01093240175396204, -0.00041509419679641724, -0.0077681024558842182, 0.0094694774597883224, 0.0018527200445532799, -9.995047003030777e-05, 0.0076687019318342209, -0.0043290238827466965, 0.011885147541761398, 0.011390242725610733, 0.010769098997116089, -0.0012900838628411293, -0.007635749876499176, 0.0029494352638721466, 0.0035974476486444473, -0.0037992037832736969, -0.0066362940706312656, 0.0099676772952079773, -0.0054936390370130539, -0.0053154774941504002, 0.0041107349097728729, 0.0063841603696346283, 0.010796293616294861, 0.00075475592166185379, 0.002122911624610424, 0.00053777731955051422, -0.0087116686627268791, -0.0028368402272462845, 0.0066300351172685623, -0.0013591228052973747, -0.0014712661504745483, -0.0029666256159543991, 0.005835874006152153, -0.0042216554284095764, 0.009704001247882843, -0.0082097677513957024, 0.0050969105213880539, 0.010343754664063454, -0.0011627441272139549, -0.012616012245416641, 0.012346228584647179, -0.0069198170676827431, -0.0092496918514370918, 0.011771345511078835, 0.012601686641573906, -0.0070945513434708118, -0.005949387326836586, -0.0030183782801032066, -0.0034637032076716423, 0.010004667565226555, 0.0089538861066102982, 0.0027780588716268539, -0.0092438366264104843, 0.0024869982153177261, -0.0040327534079551697, -0.0074859419837594032, 0.0085457377135753632, -0.0017200242727994919, -0.011189548298716545, 0.010432373732328415, 0.0096438508480787277, 0.0010864762589335442, -0.0080763660371303558, 0.0032177884131669998, -0.00054391752928495407, 0.0091829653829336166, -0.010472909547388554, 0.012513330206274986, -0.002790745347738266, 0.011659424751996994, -0.00079306773841381073, 0.010013977065682411, 0.011303668841719627, -0.01201107632368803, 0.0027255881577730179, 0.0085699968039989471, -0.0040261987596750259, -0.006403687410056591, 0.0012625064700841904, -0.0085962060838937759, -0.0032905507832765579, 0.00015352759510278702, -0.00045133195817470551, 0.011056501418352127, -0.00080582126975059509, 0.0054717455059289932, 0.00391351617872715, -0.0093047088012099266, 0.0051843356341123581, 0.01013973169028759, 0.00039342232048511505, 0.0091786179691553116, 0.0083243176341056824, 0.0097941122949123383, -0.0012233816087245941, 0.0051794350147247314, -0.00049265474081039429, -0.00031751301139593124, -0.0023979311808943748, 0.0014445185661315918, 0.0057591553777456284, -0.0116251390427351, 0.0037063173949718475, -0.0035914415493607521, -0.002457762137055397, -0.0052192988805472851, 0.0058586318045854568, -0.012455041520297527, 0.0022624703124165535, 0.0098022632300853729, -0.0022806618362665176, -0.0026104506105184555, 0.0058583095669746399, -0.0074058352038264275, 0.0062760375440120697, 0.0084614809602499008, 0.00022497214376926422, 0.0040434785187244415, 0.0088702421635389328, -0.0059039788320660591, 0.011330693960189819, -0.00040271133184432983, -0.00016260985285043716, 0.0041850246489048004, -0.0090116076171398163, -0.00048700626939535141, 0.0025291787460446358, -0.0020316028967499733, 0.010833162814378738, -0.0025552855804562569, -0.0048025194555521011, -0.0098199499770998955, 0.010182272642850876, 0.012043891474604607, 0.0076165366917848587, 0.006326332688331604, -0.0053907111287117004, -0.011743138544261456, -0.00065779592841863632, -0.0017160885035991669, -0.0059723816812038422, 0.0061593856662511826, -0.0099262725561857224, -0.0043911850079894066, 0.012071184813976288, 0.0015831096097826958, 0.0038706455379724503, 0.0050061736255884171, -0.0028853202238678932, 0.0096887480467557907, 0.0041019171476364136, -0.0097623029723763466, 0.0031731352210044861, -0.0023306021466851234, -0.0042975218966603279, 0.004199126735329628, 0.0073076710104942322, -0.0094736209139227867, 0.012054668739438057, 0.007215375080704689, -0.0063938354142010212, -0.00083071086555719376, 0.010955898091197014, 0.012529235333204269, -0.0040101055055856705, 0.0081558786332607269, -0.01100463978946209, -0.011047621257603168, 0.0069752465933561325, -0.0067457128316164017, 0.00037595722824335098, 0.0047951564192771912, -0.0017444025725126266, -0.011669537983834743, 0.0091137103736400604, 0.0064909029752016068, 0.010631456971168518, -0.0057897758670151234, 0.011097561568021774, -0.0077197225764393806, 0.010089324787259102, -0.0099842818453907967, -0.001115904189646244, -0.003711845725774765, -0.010569225065410137, -0.00252562016248703, 0.0022067902609705925, -0.0055019003339111805, -0.0023592719808220863, 0.010813368484377861, 0.0094373039901256561, -0.010086653754115105, 0.011812612414360046, 0.0030234493315219879, 0.0089069455862045288, -0.0032797828316688538, 0.0097197741270065308, 0.011402742937207222, -0.008888978511095047, -0.0026118503883481026, -9.3091279268264771e-05, 0.0046854764223098755, 0.0043857134878635406, 0.0014851968735456467, -0.0030518816784024239, -0.0025431551039218903, 0.012262681499123573, 0.0081256832927465439, 0.0040186159312725067, 0.0018357569351792336, -0.0053868847899138927, 0.0028668548911809921, 0.002768748439848423, -0.011814530938863754, 0.0070600919425487518, -0.0063032107427716255, -0.012102711014449596, -0.00096743088215589523, -0.012529624626040459, -0.0025280630216002464, 0.012235473841428757, -0.010481806471943855, 0.0044234413653612137, 0.0090692825615406036, 0.00091376155614852905, -0.0078330095857381821, -0.010387677699327469, -0.0017992453649640083, 0.010241109877824783, -0.0092842355370521545, 0.0030440893024206161, 0.0029731839895248413, -0.0025422973558306694, 0.0063352510333061218, 0.0066480953246355057, -0.0083527527749538422, -0.012651964090764523, -0.010422115214169025, -0.0074474592693150043, 0.00088980328291654587, -0.0065171937458217144, 0.0012013819068670273, 0.010266071185469627, -0.011514808051288128, 0.0033562742173671722, -0.012137500569224358, -0.0094659412279725075, 0.012587426230311394, 0.0026796562597155571, -0.0050076697953045368, -0.0081442426890134811, 0.0027360748499631882, 0.0017458656802773476, 0.0084670986980199814, 0.0065312981605529785, -0.0073597882874310017, -0.0041813207790255547, 0.008431997150182724, 0.0064053237438201904, -0.0007534269243478775, -0.00088472384959459305, 0.0090992692857980728, -0.0031237583607435226, 0.0081196483224630356, -0.008556148037314415, -0.0072874343022704124, -0.01167526189237833, -0.002584642730653286, -0.012510446831583977, -0.010262868367135525, -0.0028219092637300491, 0.005566716194152832, 0.0061648674309253693, 0.0096404217183589935, -0.00030011776834726334, 0.0095348916947841644, 0.010099628940224648, 0.011110816150903702, -0.0080529246479272842, -0.0027507049962878227, -0.0077480305917561054, 0.010321605950593948, 0.0064643062651157379, -0.010184450075030327, 0.010895825922489166, -0.010906663723289967, 0.0082712937146425247, -0.0040479954332113266, -0.0097442716360092163, -0.012430616654455662, 0.0019295234233140945, -0.0063218954019248486, -0.0034942682832479477, -0.0073841330595314503, -0.0040968218818306923, 0.0087868701666593552, 0.0047887135297060013, 0.0084100756794214249, 0.012256857007741928, -0.002457798458635807, 0.00023844093084335327, 0.0097880307585000992, 0.0086162909865379333, 0.00056412909179925919, -0.0040456587448716164, -0.0033937916159629822, 0.0066023711115121841, 0.0097468085587024689, -0.01025951374322176, -0.0046388423070311546, -0.00057568773627281189, -0.0076002697460353374, 0.0066693779081106186, -0.0078289983794093132, -0.0098992632701992989, 0.0072937458753585815, 0.0039920136332511902, -0.0029617501422762871, -0.00065100379288196564, 0.0080989580601453781, -0.0072360467165708542, 0.011279858648777008, -0.009589439257979393, -0.0080551300197839737, -0.0088726337999105453, 0.010798245668411255, 0.012393271550536156, 0.0019332738593220711, 0.0085289105772972107, -0.0017411541193723679, -0.0020133871585130692, 0.007080812007188797, -0.0081899967044591904, 0.0047134533524513245, -0.0082453452050685883, -0.0035598389804363251, -0.0066077942028641701, 0.0098222494125366211, -0.010366219095885754, -0.0083717238157987595, 0.0098099000751972198, -0.0065368241630494595, -0.0074999816715717316, -0.012680831365287304, -0.0026671672239899635, 0.01163756474852562, 0.0020728167146444321, -0.005601558368653059, -0.0037817209959030151, 0.0096107888966798782, 0.0007407674565911293, -0.0024428581818938255, 0.01200512982904911, -0.0026549948379397392, 0.0091465488076210022, -0.0093886330723762512, -8.7572261691093445e-06, -0.01243115495890379, 0.0056926850229501724, -0.0021822871640324593, -0.0030019693076610565, -0.0073190974071621895, -0.0029999073594808578, -0.0010525528341531754, 0.0069650635123252869, -0.0032818792387843132, 0.0010919449850916862, 0.0027385177090764046, 0.0019942251965403557, -0.012664038687944412, 0.0013963915407657623, -0.0080629773437976837, 0.00084716267883777618, 0.0052004400640726089, -0.0053198449313640594, -9.7882002592086792e-06, 0.01258564181625843, 0.0082332361489534378, -0.0056142359972000122, -0.0011081723496317863, 0.012374928221106529, -0.0021281372755765915, 0.007280837744474411, -0.00208299420773983, 0.001974521204829216, -0.0026701875030994415, 0.0045952405780553818, 0.010416388511657715, 0.0098648201674222946, -0.0025395657867193222, -0.0034224344417452812, -0.0092305326834321022, 0.0066126156598329544, -0.011750873178243637, -0.0023490581661462784, 0.0028541376814246178, -0.0056873071007430553, -0.011642835102975368, -0.01096186600625515, 0.009015355259180069, -0.01017324160784483, -0.0025499686598777771, -0.0070335394702851772, -0.00023065134882926941, 0.0010041827335953712, -0.0062681958079338074, -0.004711727611720562, -0.001725517213344574, -0.0062707448378205299, -0.00083801709115505219, 0.0024232733994722366, 0.0082142595201730728, 0.00041463784873485565, -0.0033743074163794518, -0.0052851373329758644, -0.004847891628742218, -0.011755959130823612, -0.0093750208616256714, 0.012270091101527214, 0.012480925768613815, 0.0034738313406705856, -0.0022303201258182526, 0.0037580020725727081, -0.0084220841526985168, -0.0023376429453492165, 0.0038942974060773849, 0.0039649009704589844, 0.0099365692585706711, -0.011273903772234917, -0.0019775964319705963, 0.012126943096518517, -0.0056215324439108372, 0.0087517295032739639, 0.0043623577803373337, 0.0021715806797146797, 0.0022912798449397087, -0.0051151085644960403, 0.0096600782126188278, 0.0078681856393814087, -0.01084628514945507, 0.0088101550936698914, -0.011457683518528938, 0.011293092742562294, -0.0095928972586989403, -0.0053045549429953098, -0.0089753149077296257, -0.0068184859119355679, 0.0084352195262908936, -0.0066406312398612499, -0.0060470346361398697, 0.011396370828151703, 0.010911000892519951, 0.0095750000327825546, 0.010137015953660011, -0.010434326715767384, 0.0037967897951602936, -0.0093053597956895828, 0.0018700119107961655, -0.0044179055839776993, 0.0086164362728595734, -0.0047901496291160583, -0.00924669299274683, 0.0031171329319477081, -0.001422470435500145, -0.0093277273699641228, -0.0017851507291197777, 0.01196221262216568, -0.00070798210799694061, 0.0016659507527947426, -0.010287968441843987, -0.0087890010327100754, 0.0051477625966072083, 0.011077988892793655, -0.0060415323823690414, -0.010642010718584061, 0.0043974518775939941, 0.0034771431237459183, -0.0034574856981635094, -0.0059304684400558472, 0.0063151586800813675, 0.0048364549875259399, -0.0068571204319596291, 0.0031795836985111237, -0.0022001657634973526, -0.003056185320019722, -0.010968709364533424, 0.010383510962128639, 0.0094811860471963882, -0.0078367609530687332, 0.00037311669439077377, 0.0041428022086620331, -0.0054154791869223118, -0.0062553845345973969, 0.0069499053061008453, 0.0011958125978708267, -0.012251308187842369, -0.0089798197150230408, 1.3425946235656738e-05, -0.0020835809409618378, 0.0013843895867466927, 0.0036246124655008316, -0.010929366573691368, 0.010298635810613632, 7.4397772550582886e-05, -0.011814610101282597, 0.0032021272927522659, -0.0079612508416175842, 0.0081990938633680344, -0.00038741249591112137, 0.0089872069656848907, 0.010951170697808266, 0.0073567647486925125, -0.004168141633272171, 0.00030829384922981262, -0.0038078483194112778, -0.0005219699814915657, -0.0055251778103411198, 0.0094906669110059738, 0.00036578625440597534, 0.0019336603581905365, -0.0022076694294810295, -0.011480474844574928, -0.0069148014299571514, 0.0041194036602973938, 0.00070586800575256348, 0.0093589369207620621, 0.012374427169561386, -0.012642218731343746, 0.0012453487142920494, -0.00031688995659351349, -0.0011482788249850273, 0.003032442182302475, -0.01212617103010416, 0.0054950173944234848, 0.004080677404999733, -0.012279726564884186, -0.005252741277217865, -0.0088287070393562317, 0.01039513573050499, -0.012433244846761227, 0.00065455585718154907, -0.0068629207089543343, -0.0054879910312592983, 0.00080333370715379715, 0.001140981912612915, -0.0099576134234666824, 0.0078509990125894547, -0.0076883453875780106, -0.0077137639746069908, -0.0040684016421437263, 0.011861210688948631, 0.0034849606454372406, -0.0029551377519965172, -0.010806811042129993, 0.0097933430224657059, -0.011266531422734261, -0.0043745478615164757, 0.0061262138187885284, 0.0056933388113975525, 0.006222972646355629, -0.004925120621919632, -0.00020175240933895111, -0.0078416820615530014, -0.0027525089681148529, 0.0012856191024184227, 0.0097890477627515793, -0.0049431184306740761, 0.011163366958498955, 0.010893527418375015, -0.00062281079590320587, 0.012578899040818214, 0.0091640166938304901, 0.0034012962132692337, 0.004246104508638382, 0.0092970598489046097, 0.0059379804879426956, -0.012619664892554283, -0.0099686784669756889, -0.0026975627988576889, -0.008374728262424469, 0.00042934715747833252, -0.007460267748683691, -0.0022013215348124504, 0.0077392645180225372, 0.0063683353364467621, 0.0013991314917802811, 0.010281587019562721, -0.0035729752853512764, 0.011389406397938728, 0.0072198659181594849, 8.1496313214302063e-05, -0.0037608100101351738, -0.0079358527436852455, -0.0073417057283222675, 0.0040494557470083237, -0.0016383323818445206, -0.0042388774454593658, -0.010347373783588409, -0.0096797076985239983, 0.0036850869655609131, 0.0075924135744571686, 0.0025612441822886467, 0.0040482021868228912, -0.0080004353076219559, 0.0010444140061736107, -0.012187258340418339, 0.01046285405755043, -0.0048780310899019241, -0.010056611150503159, -0.0080189649015665054, -0.00077391508966684341, -0.0045270323753356934, -0.0087144700810313225, 0.0077414512634277344, -0.012186260893940926, 0.0086408276110887527, -0.010994365438818932, -0.0080166254192590714, 0.0052384119480848312, 0.0049784183502197266, 0.0016327360644936562, 0.0096013136208057404, 0.0042132847011089325, 0.011266335844993591, -0.0075936876237392426, -0.011614806950092316, -0.0096586327999830246, -0.0029547326266765594, -0.0042004529386758804, -0.0071896682493388653, 0.010562904179096222, -0.0099998610094189644, -0.0070773446932435036, -0.011472143232822418, -0.0066999788396060467, -0.0091673955321311951, -0.002902371808886528, -0.010890248231589794, 0.0089037362486124039, 0.010147010907530785, 0.010252868756651878, 0.0013731839135289192, -0.011772233992815018, 0.011283585801720619, 0.01268753781914711, -0.011025666259229183, -0.0083414744585752487, -0.0038516353815793991, -0.0020588189363479614, 0.0037994254380464554, -0.0037119248881936073, 0.0018461653962731361, -0.0015253368765115738, 0.0082461759448051453, -0.0060840570367872715, 0.0085084568709135056, -0.0017611375078558922, -0.0030640391632914543, -0.010573657229542732, 0.0041844509541988373, -0.0046451045200228691, 0.0086926259100437164, 0.0069299396127462387, -0.0040240241214632988, 0.011909188702702522, -0.0047032628208398819, 0.0089763347059488297, 0.0022170683369040489, 0.0099318996071815491, -0.0094941332936286926, 0.011064346879720688, -0.0012487005442380905, 0.0043493397533893585, 0.0026126895099878311, -0.0021272283047437668, 0.00091859232634305954, -0.011750292032957077, 0.01093415729701519, -0.0035331035032868385, -0.011663509532809258, 0.0045175086706876755, 0.011152444407343864, 0.0044438689947128296, 0.0094238612800836563, -0.0075289164669811726, -0.0048045702278614044, -0.00083954073488712311, -0.0018018400296568871, 0.0054710302501916885, 0.011558040976524353, 0.0058496743440628052, -0.0085859745740890503, -0.0096594998612999916, 0.0086368415504693985, 0.0010230774059891701, 0.0051137339323759079, 0.010769560933113098, -0.0014925915747880936, 0.008651411160826683, 0.0088195018470287323, -0.0033490220084786415, 0.0084886029362678528, -0.011139340698719025, -0.0045506870374083519, -0.0022252863273024559, 0.0003694482147693634, -0.012529362924396992, -0.0072774821892380714, -0.011136109940707684, -0.0028679743409156799, 0.0065405722707509995, -0.011386650614440441, 0.0019578225910663605, -0.011772636324167252, -0.0077004386112093925, -0.0063613997772336006, 0.0069638509303331375, -0.0010399306192994118, -0.0049203848466277122, -0.010076327249407768, 0.0023024426773190498, 0.0011058906093239784, 0.010466491803526878, 0.010379437357187271, -0.0081699676811695099, 0.0072013605386018753, 0.0010758182033896446, 0.011686135083436966, 0.0004213256761431694, -0.0010985853150486946, -0.012539548799395561, 0.010040109977126122, -0.0022294623777270317, -0.0049304068088531494, 6.495695561170578e-05, -0.005444773007184267, 0.011872652918100357, 0.0088179521262645721, 0.012331850826740265, 0.010963287204504013, -4.5207329094409943e-05, -0.0061285435222089291, -3.2304786145687103e-05, -0.0086102858185768127, 0.006167171522974968, 0.0095196124166250229, 0.010911740362644196, -0.01183311827480793, 0.0022780792787671089, 0.00022124592214822769, 0.0029268693178892136, -0.008831508457660675, 0.0010691387578845024, -0.011356836184859276, -0.0051983357407152653, 0.0089938808232545853, 0.0086733996868133545, -0.011700915172696114, 0.0022037271410226822, -0.0052239159122109413, 0.0085940565913915634, 0.0069526359438896179, 0.0095609128475189209, -0.0070701604709029198, 0.0030276067554950714, -0.0090658664703369141, -0.007903657853603363, -0.0020339088514447212, -0.0021262606605887413, 0.011906789615750313, 0.00012584030628204346, 0.0016364622861146927, 0.011572342365980148, -0.012251262553036213, 0.0074423011392354965, 0.010739238932728767, 0.00083389878273010254, 0.0108800008893013, 0.00015985500067472458, -0.0085054412484169006, 0.011740246787667274, -0.0026492979377508163, 0.0076919868588447571, -0.010567965917289257, -0.0082372967153787613, -0.0077664474956691265, 0.0025033988058567047, 0.0055477675050497055, 0.011649699881672859, -0.0055634956806898117, 0.0019013611599802971, 0.0013014199212193489, -0.0049679586663842201, -0.0048935767263174057, 0.0024575982242822647, -0.0066955229267477989, -0.0018151262775063515, -0.0020720744505524635, 0.0050965938717126846, 0.0034453887492418289, 0.0043846499174833298, -0.0043055890128016472, -0.0091709662228822708, 0.0044898763298988342, 0.012197557836771011, 0.0033348053693771362, -0.0073042637668550014, 0.0094941705465316772, -0.0076325228437781334, -0.0070107793435454369, 0.008656306192278862, 0.010258983820676804, 0.0063075721263885498, 0.0093471184372901917, 0.0059265177696943283, -0.003614344634115696, 0.0033526849001646042, -0.00020440481603145599, 0.0010641142725944519, 0.007874704897403717, 0.012301389127969742, -0.0091925980523228645, 0.0072751063853502274, -0.0056703505106270313, 0.0038790088146924973, 0.0049841832369565964, 0.0076027233153581619, 0.0025244643911719322, 0.0052499491721391678, 0.006808064877986908, -0.00518798828125, -0.0057576717808842659, 0.0071720480918884277, -0.0020980685949325562, -0.010855908505618572, -0.0020566228777170181, -0.0025497432798147202, 0.0044449549168348312, -0.0095658209174871445, 0.0038536638021469116, 0.0027603954076766968, 0.010949146002531052, -0.0070649352855980396, -0.0051244189962744713, -0.0019158972427248955, 0.004989946261048317, 0.0053932387381792068, 0.010787196457386017, -0.0035164598375558853, 0.0042487047612667084, -0.012514805421233177, 0.012110399082303047, 0.0066867992281913757, 0.0094988606870174408, -0.0028933500871062279, -0.0036674300208687782, 0.012286292389035225, 0.01102222315967083, -0.011540056206285954, 0.0024155750870704651, -0.00090659596025943756, 0.000696597620844841, -0.003606046549975872, -0.010404482483863831, 0.0052189696580171585, 0.0041977912187576294, -0.0064183203503489494, 0.012023357674479485, -0.0051935212686657906, -0.009057091549038887, -0.0014567244797945023, -0.0049138758331537247, -0.00094807986170053482, 0.011139433830976486, -0.00027856230735778809, 0.0060971267521381378, -0.00022304710000753403, 0.0070921871811151505, -0.0054155611433088779, 0.0081822741776704788, -0.0069485236890614033, -0.0070664589293301105, -0.0035547595471143723, 0.0078703854233026505, -0.0068014836870133877, -0.0023526260629296303, 0.0084697362035512924, 0.0011188574135303497, 0.0024416204541921616, -0.0010142624378204346, -0.011019336991012096, 0.012595571577548981, -0.011226668022572994, 0.0038557909429073334, 0.00373087078332901, -0.0022925632074475288, -2.7712434530258179e-05, -0.0061826840974390507, -0.0044446233659982681, -0.0016339831054210663, -0.01198635995388031, 0.0059379022568464279, 0.0055753979831933975, -0.0080706020817160606, 0.010622994974255562, 0.012755965813994408, 0.01246945746243, 0.0015140166506171227, -0.0071306671015918255, 0.010815814137458801, 0.011654222384095192, -0.0074137765914201736, 0.010014500468969345, -0.0028067287057638168, -0.0090522710233926773, 0.0054328702390193939, 0.0088498909026384354, 0.0087826680392026901, -0.0015027504414319992, -0.0047347098588943481, 0.007783958688378334, -0.0066372305154800415, -0.0024556145071983337, 0.012681068852543831, 0.0021792147308588028, 0.0091530568897724152, -0.011649766936898232, -0.0032547265291213989, 0.0042620021849870682, -0.0082411905750632286, -0.0031038783490657806, 0.0090194884687662125, -0.0059738266281783581, 0.0084935333579778671, -0.0012132804840803146, -0.00062778685241937637, -0.0057177566923201084, 0.0077152568846940994, -0.011334982700645924, -0.007222173735499382, 0.0087067354470491409, 0.011029301211237907, -0.0073196664452552795, -0.0017792778089642525, -0.0039972607046365738, 0.0036459043622016907, -0.0099084824323654175, 0.0011911867186427116, -0.0086402278393507004, -0.005770933348685503, -0.0028860168531537056, -0.0096914544701576233, 0.008968401700258255, 0.0012903241440653801, 0.00064836349338293076, 0.0051227360963821411, 0.00370829738676548, 0.010356413200497627, -0.012707293964922428, 0.0015839673578739166, -0.011046504601836205, -0.0082945041358470917, -0.0086195562034845352, 0.0069616269320249557, 0.0064312387257814407, -0.0025810534134507179, 0.011519597843289375, -0.007475612685084343, 0.0026608500629663467, -0.0042674196884036064, -0.0074360868893563747, 0.0050281640142202377, -0.0067367427982389927, 0.0016254214569926262, 0.010331125929951668, 0.00072776153683662415, -0.0047773933038115501, -0.0093522155657410622, -0.0086174029856920242, -0.0097762327641248703, 0.006990186870098114, 0.0049501135945320129, 0.0089582763612270355, 0.010143278166651726, 0.010672774165868759, -0.0020281169563531876, -0.0079893786460161209, -0.007498239167034626, 0.00049406010657548904, 0.0082759372889995575, 0.0060932580381631851, 0.0030738748610019684, -0.0072344830259680748, 0.011661035940051079, 0.0020616268739104271, 0.0090905521064996719, -0.0044171819463372231, -0.0077547496184706688, 0.001729070208966732, -0.0090473582968115807, -0.0018670372664928436, -0.007023192010819912, -0.006353059783577919, 0.0019714497029781342, 0.00062922853976488113, 0.0048495028167963028, 0.004834882915019989, 0.00071986299008131027, -0.0058464594185352325, -0.0088307112455368042, 0.0031453315168619156, -0.00060107000172138214, 0.01135733537375927, -0.0029205968603491783, 0.0083051640540361404, 0.0043424777686595917, -0.010993443429470062, 0.012506723403930664, -0.0049445722252130508, 0.0027990452945232391, -0.0096424790099263191, 0.010803544893860817, -0.012521621771156788, 0.012167941778898239, 0.0096546877175569534, -0.011969083920121193, 0.00011420901864767075, -7.8050419688224792e-05, 0.0018350724130868912, 0.012461656704545021, -0.00016296934336423874, 0.0092496555298566818, 0.00063213706016540527, 0.011804962530732155, 0.0085115525871515274, 0.0059079155325889587, 0.0046348031610250473, -0.010053098201751709, -0.0073150615207850933, -0.0093768192455172539, 0.0027799103409051895, -0.012501133605837822, 0.0046725645661354065, 0.0080489404499530792, 0.0086332224309444427, 0.0093724299222230911, 0.012395057827234268, -0.0036955336108803749, -0.010993507690727711, 0.0071869771927595139, 0.010456643998622894, 0.0091559886932373047, 0.0072912797331809998, 0.0059067495167255402, 0.0087025649845600128, -0.010821836069226265, -0.009951246902346611, -0.0015290267765522003, 0.012702539563179016, -0.0050467513501644135, -0.0020288899540901184, -0.0085843047127127647, 0.00040081050246953964, 0.0011405861005187035, -0.0086623281240463257, -0.0013393154367804527, 0.0092865079641342163, 0.00048585701733827591, 0.0026804292574524879, 0.0046738777309656143, -0.007136498112231493, 0.011223562061786652, 0.0084691103547811508, -0.0074365371838212013, 0.011471200734376907, 0.0080637820065021515, -0.00078936014324426651, 0.0063217561691999435, -0.0028280802071094513, -0.0011983858421444893, -0.0063267345540225506, 0.004169197753071785, 0.0026202108711004257, -0.0042102495208382607, -0.0032595228403806686, 0.00033718906342983246, -0.012022099457681179, 0.0086856242269277573, 0.0036139301955699921, -0.0091300196945667267, -0.0051971375942230225, 0.0007358035072684288, -0.0085510257631540298, 0.0049585290253162384, 0.011678829789161682, 0.010394126176834106, 0.0066029243171215057, 0.0048867873847484589, -0.0092584732919931412, -0.0017922408878803253, -0.0091358749195933342, 0.0077060163021087646, -0.012072492390871048, 0.012370914220809937, -0.010116716846823692, 0.0021859370172023773, -0.0054704076610505581, 2.2078864276409149e-05, -0.0087514044716954231, -0.0056840619072318077, -0.0053340825252234936, 0.0060637369751930237, 0.005926474928855896, 0.0052269306033849716, 0.001264519989490509, -1.5357509255409241e-05, 0.0027908822521567345, 0.0052548274397850037, 0.0059013869613409042, -0.0049644517712295055, -0.0070164063945412636, -0.0004656575620174408, -0.0032138470560312271, -0.002480613999068737, 0.0094413887709379196, -0.0055313762277364731, 0.0090897213667631149, -0.012097110971808434, 0.010642958804965019, -0.0031000366434454918, 0.0054042190313339233, 0.0057605300098657608, -0.0069022155366837978, 0.012584777548909187, -0.0032313885167241096, 0.0065963584929704666, 0.0068335290998220444, -0.011631399393081665, -0.0087623726576566696, 0.0063551124185323715, 0.0090419352054595947, 0.0053975246846675873, -0.010460460558533669, -0.0061412695795297623, -0.005766729824244976, 0.012308083474636078, 0.0055585317313671112, -0.012503481470048428, -0.003900543786585331, 0.0097182169556617737, -0.0088540064170956612, -0.0049337800592184067, -0.0059205894358456135, -0.00029969494789838791, 0.0011611990630626678, 0.0026909373700618744, -0.00011444650590419769, -0.0078673558309674263, -0.0048598665744066238, 0.0021593142300844193, -0.011700053699314594, -0.0004915902391076088, 0.0072583779692649841, 0.0098973717540502548, -0.00017676595598459244, -0.0072304289788007736, 0.0019745882600545883, 0.00072021503001451492, -0.0091772777959704399, 0.011194158345460892, 0.0070877596735954285, 0.0063417945057153702, 0.0084563996642827988, 0.0082123074680566788, 0.0088741611689329147, -0.00064039416611194611, 0.0032053608447313309, 0.0057655740529298782, -0.0089425928890705109, -0.0026285573840141296, 0.0099054612219333649, 0.00093005597591400146, 0.0066824927926063538, -0.0091594420373439789, -0.0036411779001355171, 0.0029531735926866531, 0.0086473692208528519, 0.0019079679623246193, 0.0085893012583255768, -0.0097117852419614792, -0.0093752434477210045, -0.011217528022825718, 0.0053075514733791351, -0.012670818716287613, 0.0015950202941894531, -0.011665896512567997, 0.00086502917110919952, 0.012606175616383553, -0.00076425168663263321, -0.0055777272209525108, 0.0042764768004417419, -0.006139037199318409, 0.0056852605193853378, 0.0023130914196372032, 0.00053718406707048416, 0.010802324861288071, -0.0012253252789378166, -0.0073236445896327496, -0.007446464616805315, -0.0048994589596986771, 0.0043093170970678329, -0.0020148716866970062, -0.0031321989372372627, 0.0082465428858995438, 0.010990142822265625, -0.0059518357738852501, 0.01066170446574688, -0.0039262734353542328, -0.011963511817157269, -0.0096804779022932053, 0.005926450714468956, 0.0085921827703714371, 0.0088231675326824188, -0.0053961039520800114, -0.011806923896074295, 0.0090582147240638733, 0.012243892997503281, -0.0075229490175843239, -0.0042242137715220451, -0.0079160574823617935, -0.0058882599696516991, -0.0062636276707053185, 0.0090863313525915146, -0.012557251378893852, -0.0059126750566065311, -0.011873641982674599, -0.0096250902861356735, -0.0094198696315288544, -8.2905404269695282e-05, 0.00094245932996273041, -0.0064566535875201225, 0.012195756658911705, -0.010967656970024109, -0.0017195586115121841, -0.011393150314688683, -0.00013807974755764008, -0.0021386463195085526, -0.0032408693805336952, 0.0011764746159315109, 0.0089190397411584854, 0.0046861879527568817, -0.0081067215651273727, 0.011003797873854637, -0.011232121847569942, -0.0069061755202710629, -0.0019780527800321579, 0.010941434651613235, 0.0052051674574613571, 0.0035764332860708237, -0.0057146907784044743, -0.0099775325506925583, 0.0029262211173772812, -0.0039632013067603111, 0.011181153357028961, 0.012126617133617401, 0.00028364174067974091, -0.0040880199521780014, -0.0016962448135018349, 0.010931400582194328, 0.0042586568742990494, -0.012377465143799782, 0.0060274656862020493, -0.0046846633777022362, -0.0059348572976887226, 0.010167093947529793, -0.0067811291664838791, 0.012449305504560471, 0.0019352296367287636, -0.0094856778159737587, 0.0032500326633453369, -0.0016494924202561378, -0.011198913678526878, -0.00033468566834926605, 0.0076804179698228836, -0.007978782057762146, 0.0079879090189933777, 0.0095393266528844833, 0.0034158714115619659, -0.0089520011097192764, -0.0074899382889270782, -0.012048582546412945, -0.0058547109365463257, 0.0019181333482265472, 0.0050915572792291641, 0.011689089238643646, -0.0017386870458722115, 0.010888334363698959, 0.0072195269167423248, 0.006915731355547905, 0.0036570951342582703, -0.0052511137910187244, -0.011747165583074093, -0.0073126251809298992, 0.01097281277179718, -0.0045529594644904137, -0.0088870935142040253, 0.0021650930866599083, 0.011018451303243637, -0.0090907895937561989, -0.00023775640875101089, 0.0076109021902084351, 0.0042091067880392075, 0.0058093033730983734, 0.0012844540178775787, -0.011249628849327564, 0.0048360619693994522, 0.00018253270536661148, -0.0044794585555791855, 0.0065728276968002319, -0.00082257762551307678, -0.006624951958656311, -0.012709197588264942, -0.0077718314714729786, -0.0079467818140983582, 0.011473642662167549, -0.00137284304946661, 0.0076773278415203094, 0.0065720062702894211, 0.010778686031699181, 0.0039191525429487228, -0.0088255982846021652, 0.01162242703139782, 0.01166979968547821, -0.0083209741860628128, -0.009980151429772377, 0.0016810614615678787, -0.0054572708904743195, -0.0067502721212804317, -0.012438814155757427, 0.0084709711372852325, 0.00013680849224328995, 0.0028500743210315704, 0.0032259430736303329, 0.011737657710909843, 0.0052831638604402542, 0.0090260710567235947, 0.0049048066139221191, 0.012248478829860687, -0.0063424599356949329, -0.011165766045451164, -0.00049994885921478271, 0.011434828862547874, -0.0064452691003680229, -0.0052400152198970318, 0.010399427264928818, -0.0065506515093147755, 0.011724518612027168, 0.0021287854760885239, 0.0089114680886268616, -0.0059692882932722569, 0.00095276441425085068, 0.0040500760078430176, -0.011142385192215443, -0.0033789519220590591, -0.0014076000079512596, 0.0049149226397275925, -0.012715985998511314, 0.003511279821395874, 0.0078923609107732773, 0.0054802168160676956, -0.0081182736903429031, -0.0055898968130350113, 0.0093963891267776489, 0.0043801777064800262, -0.00072470493614673615, 0.0097373500466346741, 0.0019225552678108215, 0.0085416305810213089, 0.00068953447043895721, -0.0095324879512190819, -0.010034292005002499, 0.00099520385265350342, -0.00053821783512830734, -0.0084788762032985687, 0.00084128323942422867, 0.0022247331216931343, 0.01206236332654953, 0.0040088444948196411, -0.0094772102311253548, 0.0079132076352834702, 0.012748835608363152, 0.0062175225466489792, 0.007544906809926033, 0.012303095310926437, -0.0053147594444453716, 0.007122846320271492, 0.0033839456737041473, 0.010279044508934021, 0.011620918288826942, -0.0029010884463787079, 0.0071547441184520721, -0.011958964169025421, -0.010297077707946301, 0.011641284450888634, 0.0057639125734567642, 0.0093395169824361801, 0.0052483454346656799, 0.0083473119884729385, 0.0095954686403274536, -0.0061610857956111431, 0.0071190446615219116, 0.0020514465868473053, 0.0067867524921894073, -0.0071821552701294422, 0.010714182630181313, 0.0036717858165502548, 0.010239502415060997, -2.0682811737060547e-05, -0.0028662495315074921, 0.0089211631566286087, -0.010835298337042332, 0.0093060657382011414, 0.0031527969986200333, 0.010880114510655403, -0.0061922683380544186, -0.007343062199652195, 0.010798780247569084, 0.0073283109813928604, -0.0070910989306867123, 0.002920147031545639, 0.00015708338469266891, 0.010751655325293541, 0.0073537379503250122, -0.0081422561779618263, 0.0026626633480191231, 0.010276023298501968, -0.0031049763783812523, -0.012314616702497005, -0.011089078150689602, 0.0071902088820934296, 0.0031786337494850159, -0.010714894160628319, 0.0085853319615125656, 0.0016003828495740891, 0.010675149038434029, 0.0022309804335236549, 0.0048209764063358307, -0.0096670705825090408, -0.0076554412953555584, 0.0011970018967986107, -0.0072036534547805786, 0.012509115040302277, 0.010493200272321701, -0.0067235939204692841, 0.0016839811578392982, 0.0047073941677808762, -0.012237468734383583, -0.0095579195767641068, 0.0069010201841592789, 0.0073398053646087646, 0.0033689476549625397, 0.0073528345674276352, 0.0025636311620473862, -0.005398361012339592, -0.0023557655513286591, 0.0025503216311335564, -0.0013352883979678154, 0.010161427780985832, 0.0070631373673677444, -0.0052354554645717144, 0.0046495851129293442, 0.0050450079143047333, -0.0037509975954890251, -0.0024859579280018806, -0.0059635760262608528, -0.00246466975659132, 0.0019084000959992409, 0.0016403133049607277, -0.000364706851541996, -0.0056664207950234413, 0.012544360011816025, -0.0018609752878546715, 0.009822523221373558, -0.0040141846984624863, 0.0044278521090745926, -0.0014166878536343575, -0.00030275247991085052, -7.3917210102081299e-05, 0.0017162347212433815, 0.0097950976341962814, -0.005870734341442585, 0.011517534032464027, -0.011908884160220623, 0.011909175664186478, 3.5106204450130463e-05, 0.0054860375821590424, -0.0004809107631444931, -0.00034064427018165588, -0.0060016298666596413, -0.0064180982299149036, -0.0091188699007034302, -0.011735990643501282, 0.0099741239100694656, -0.0024178195744752884, 0.00085925590246915817, 0.010759450495243073, 0.0095318369567394257, -0.0073497234843671322, -0.0047036465257406235, 0.0061071887612342834, -0.0055249189026653767, 0.0098331347107887268, -0.0014302721247076988, 0.00018165633082389832, 0.0024819280952215195, 0.0085413958877325058, 0.0029318854212760925, 0.0098881646990776062, -0.0052372561767697334, -0.0015111695975065231, 0.0088752955198287964, -0.0043317526578903198, 0.0015892414376139641, -0.0087564326822757721, -0.0038960278034210205, -0.007420531939715147, 0.0021670153364539146, -0.006241554394364357, -0.0066843908280134201, 0.0035101845860481262, -0.01067056879401207, 0.0092175900936126709, -0.0010462114587426186, 0.001508982852101326, 0.0018583750352263451, 0.0067825466394424438, -0.0058693322353065014, -0.010860130190849304, 0.0097986869513988495, -0.0014825724065303802, -0.0048337718471884727, -0.010965701192617416, -0.0099514666944742203, 0.0069828517735004425, -0.0073525919578969479, 0.012321645393967628, 0.0095403268933296204, -0.011248436756432056, -0.0056977067142724991, -0.010770959779620171, 0.010662226006388664, -0.01217800285667181, -0.0031453538686037064, -0.001256830058991909, -0.0099914204329252243, -0.0050810640677809715, -0.0081202927976846695, 0.0025353170931339264, 0.0086123459041118622, -0.0073196389712393284, 0.0035468693822622299, -0.0082745868712663651, 0.0047594383358955383, 0.010027311742305756, 0.0033864248543977737, 0.0076833292841911316, -0.0028665326535701752, -0.006821789313107729, -0.011721055954694748, 0.0099496953189373016, -0.0094487471505999565, -0.010816583409905434, -0.010744592174887657, -0.01163944136351347, 0.011090999469161034, -0.0011254418641328812, 0.0070007480680942535, -0.010251563042402267, -0.0052161291241645813, -0.010183148086071014, 0.0089899152517318726, -0.011977366171777248, 0.0084309075027704239, 0.0053465105593204498, 0.00015096366405487061, -0.0033303042873740196, -0.0024620909243822098, 0.0094813685864210129, 0.0013891765847802162, 0.001940729096531868, -0.0041405605152249336, 0.0097039733082056046, -0.011236833408474922, -0.0059253065846860409, 0.0109114870429039, 0.00942273810505867, 0.0080276541411876678, 0.012178564444184303, 0.005092209205031395, -0.0016111982986330986, 0.0034079104661941528, -0.0047180177643895149, 0.010717907920479774, 0.002669941633939743, -0.0036656688898801804, -0.008903825655579567, -0.0043030520901083946, 0.010046275332570076, 8.452683687210083e-06, 0.0041826795786619186, -0.008470265194773674, 0.012169690802693367, 0.00011128932237625122, -0.0018558353185653687, -0.0088801700621843338, -0.011287135072052479, 0.0042888987809419632, -0.0073092854581773281, 0.011443059891462326, -0.00038246996700763702, -0.00012068171054124832, -0.0010860506445169449, 0.0014550182968378067, 0.011414019390940666, 0.012293368577957153, 0.0053097344934940338, 0.0017632972449064255, 0.0099229812622070312, -0.010957680642604828, 0.0037601534277200699, 0.0029410496354103088, 0.0039222408086061478, -0.0047460794448852539, -0.0035561341792345047, -0.011991637758910656, 0.0087359044700860977, -0.0045542456209659576, -0.012090438045561314, 0.0015542870387434959, 0.0081586223095655441, 0.0017276555299758911, 0.0097234398126602173, -0.00062795169651508331, 0.010709526017308235, 0.0088581684976816177, -0.00084527395665645599, -0.0037521533668041229, 0.0030085686594247818, 0.0026755351573228836, 0.012313038110733032, 0.0075942594558000565, 0.0031360089778900146, -0.0091428402811288834, 0.0090539008378982544, -0.012276921421289444, 0.010745424777269363, 0.008728567510843277, 0.0025075962767004967, -0.0080350432544946671, 0.0050582215189933777, -0.0041169151663780212, -0.0061106197535991669, -0.0066241668537259102, 0.0020896913483738899, -0.011072698980569839, -0.012705383822321892, -0.011295067146420479, 8.8354572653770447e-06, 0.011573605239391327, 0.0023354841396212578, -0.0059654591605067253, 0.00047721248120069504, 0.0063645970076322556, 0.0066124182194471359, -0.0031147608533501625, -0.012516843155026436, -0.0057074520736932755, -0.0070244939997792244, -0.0033135171979665756, 0.0037251804023981094, 0.002233477309346199, 0.011922072619199753, 0.010728469118475914, -0.0022093392908573151, -0.0047356802970170975, -0.011511854827404022, -0.011427374556660652, -0.010762418620288372, -0.0068906722590327263, 0.011269761249423027, 0.0092139262706041336, -0.0041260365396738052, 0.0057047232985496521, 0.0037165060639381409, -0.00087175145745277405, 0.006585925817489624, 0.010991746559739113, -0.0034720152616500854, 0.0042952317744493484, 0.0028968565165996552, 0.0090749301016330719, 0.00058953557163476944, -0.0017887549474835396, 0.0061591695994138718, 0.0078094489872455597, 0.011416034772992134, -0.011210517026484013, 0.0042209438979625702, 0.011967480182647705, 0.0016790507361292839, 0.0012242244556546211, 0.0035927314311265945, -0.007106446661055088, 0.0073790606111288071, -0.0057793888263404369, -0.0103084621950984, -0.0031487969681620598, 0.0085086468607187271, 0.011891297996044159, 0.0051828175783157349, -0.0054067405872046947, -0.005982263945043087, 0.006268821656703949, 0.0041564460843801498, -0.0076519888825714588, 0.010999228805303574, -0.0076464046724140644, -0.0005305800586938858, -0.012305294163525105, -0.0076531050726771355, -0.001947733573615551, 0.0030857808887958527, 0.00075193028897047043, 0.010526953265070915, 0.0061970707029104233, -0.006224670447409153, -0.00028269924223423004, 0.002729407511651516, 0.00015796534717082977, 0.00063007418066263199, -0.012593057006597519, -0.005197624210268259, 0.0088676605373620987, -7.129274308681488e-06, 0.011466823518276215, -0.0010717185214161873, -0.00064127333462238312, 0.0076412651687860489, -0.0056409165263175964, -0.0094905663281679153, -0.011770974844694138, -0.005359218455851078, 0.00523378886282444, 0.0042436122894287109, 0.0045769121497869492, -0.011690679937601089, 0.0032253880053758621, -0.0020453846082091331, -0.012415503151714802, -0.0095197707414627075, 0.003175714984536171, -0.0016894713044166565, -0.00997916329652071, -0.0096891159191727638, 0.0077073834836483002, 0.0038309674710035324, 0.0016726842150092125, -0.0092724161222577095, 0.008829047903418541, 0.0017309803515672684, -0.0032672705128788948, 0.0076808687299489975, 0.012283416464924812, -0.0023885592818260193, 0.0044070836156606674, -0.011555149219930172, -0.0073161930777132511, 0.0022918824106454849, 0.0089775361120700836, -0.012028048746287823, 0.012525416910648346, -0.0039403494447469711, -0.012382893823087215, -0.0048496583476662636, -0.0080211088061332703, 0.012104259803891182, -0.0046200966462492943, -0.0082180863246321678, -0.011113000102341175, -0.00071484409272670746, 0.00011732336133718491, 0.0069819055497646332, 0.00010898709297180176, -0.00089770182967185974, -0.00420406274497509, -0.0035787699744105339, 0.0033676698803901672, -0.010266832076013088, 0.0075980890542268753, 0.0045836456120014191, 0.001972416415810585, -0.0056709740310907364, 0.010935302823781967, -0.0040536858141422272, -0.0035288697108626366, 0.0063302628695964813, 0.0011710906401276588, -0.0050381375476717949, 0.0041330661624670029, -0.0078109828755259514, -1.3191252946853638e-05, 0.001046348363161087, 0.0045326892286539078, 0.0085006728768348694, 0.0093041602522134781, -0.0045975251123309135, -0.012116188183426857, -0.0085602272301912308, 0.0077825039625167847, -0.011081687174737453, -0.0093818129971623421, 0.0092508997768163681, 0.010549649596214294, -0.0059048975817859173, -0.0088358698412775993, 0.0049588456749916077, -0.012633799575269222, -0.0061796121299266815, -0.0021292632445693016, 0.010937225073575974, -0.0042786821722984314, 0.0049112848937511444, 0.0085864663124084473, -0.010060745291411877, -0.0025101657956838608, -0.0089824413880705833, 0.0044819749891757965, 0.004605686292052269, -0.010628353804349899, 0.0077113881707191467, 0.001062639057636261, -0.0044853324070572853, -0.01184040866792202, -0.0041581559926271439, -0.010335644707083702, -0.0080308783799409866, 0.012518519535660744, -0.010922428220510483, 0.0010963557288050652, 0.010076789185404778, -0.011476225219666958, -0.0051634549163281918, -0.0077873524278402328, -0.0088487602770328522, -0.0033920183777809143, 0.0027199815958738327, 0.0010059559717774391, 0.0076475869864225388, -0.011911932379007339, 0.0014855191111564636, 0.0019780769944190979, -0.0063571995124220848, -0.01035836897790432, 0.0073743779212236404, 0.0025165444239974022, -0.0091847144067287445, 0.0080047156661748886, 0.0022404519841074944, 0.0027579683810472488, 0.0019741319119930267, -0.00014701858162879944, -0.010202155448496342, -0.002416953444480896, 0.0057398602366447449, -0.0091216582804918289, -0.0065029836259782314, 0.0031277630478143692, -0.0039357477799057961, -0.012399769388139248, -0.00373858492821455, -0.0040149539709091187, 0.010670214891433716, -0.0091256853193044662, -0.001441161148250103, 0.012417186051607132, 0.0030065588653087616, 0.0094468891620635986, -0.0053353146649897099, -0.010143096558749676, -0.00016438961029052734, -0.010300167836248875, 0.0068877339363098145, 0.0039367731660604477, -0.011509665288031101, 0.011083731427788734, -0.0092076146975159645, -0.0065281190909445286, 0.0061400067061185837, 0.011622073128819466, 0.0022665243595838547, 0.0081837102770805359, -0.0089968498796224594, -0.0095029938966035843, 0.0059031248092651367, 0.00079897511750459671, 0.011730128899216652, 0.0023996373638510704, -0.0075194905512034893, 0.01170794665813446, -0.001257660798728466, 0.0053428206592798233, 0.0094222631305456161, -0.00077522918581962585, -0.012295971624553204, -0.004611065611243248, 0.0036635790020227432, 0.009901905432343483, 0.0044653918594121933, 0.0020340941846370697, 0.012540476396679878, 0.0038063675165176392, 0.0082192420959472656, -0.010625245049595833, -0.0041662286967039108, -0.010356674902141094, 0.010048802942037582, 0.00050898175686597824, -0.00080033391714096069, 0.011262476444244385, -0.011129148304462433, 0.0098845381289720535, 0.010323293507099152, 0.0004262411966919899, -0.0033754324540495872, -0.0053478674963116646, -0.012500558979809284, 0.011878155171871185, 0.012354038655757904, 0.0024037584662437439, -0.0056058866903185844, -0.00055926293134689331, -0.0029472783207893372, -0.0050379429012537003, -0.004815385676920414, -0.00064489897340536118, -0.0070348414592444897, 0.0082881338894367218, 0.0053108483552932739, -0.011828531511127949, -0.00092864781618118286, -0.0056009348481893539, 0.0038097407668828964, -0.0043485695496201515, 0.011831240728497505, -0.0073215188458561897, 0.0033149346709251404, -0.011680061928927898, -0.01120538916438818, 0.0047908276319503784, 0.012465525418519974, -0.0040658675134181976, -0.010946688242256641, 0.0021949885413050652, 0.0082313474267721176, -0.0084359012544155121, 0.0089512430131435394, -0.010654322803020477, -0.012645028531551361, 0.0023189615458250046, 0.003635140135884285, 0.0064479205757379532, 0.0094108246266841888, 0.0070089884102344513, 0.00075168069452047348, 0.0096150953322649002, -0.0033581163734197617, 0.0067620482295751572, 0.0094811040908098221, 0.011565787717700005, 0.0011881841346621513, 0.0075013414025306702, 0.0084162037819623947, 0.0081657059490680695, 0.010781772434711456, -0.0068179387599229813, 0.0033411923795938492, -0.0050515206530690193, -0.011830730363726616, -0.00079352688044309616, -0.0078008542768657207, -0.0026275115087628365, 0.011774390935897827, -0.0099632460623979568, 0.0096166972070932388, -0.010572847910225391, 